{"learner":{"attributes":{"scikit_learn":"{\"_estimator_type\": \"classifier\"}"},"feature_names":["open","high","low","close","vol","amount","year","month","day","ticker","SMA_10","SMA_20","EMA_10","EMA_20","MACD_12_26_9","MACDh_12_26_9","MACDs_12_26_9","RSI_14","BBL_20_2.0","BBM_20_2.0","BBU_20_2.0","BBB_20_2.0","BBP_20_2.0","ATR_14","OBV"],"feature_types":["float","float","float","float","float","float","float","float","float","float","float","float","float","float","float","float","float","float","float","float","float","float","float","float","float"],"gradient_booster":{"model":{"gbtree_model_param":{"num_parallel_tree":"1","num_trees":"100"},"iteration_indptr":[0,1,2,3,4,5,6,7,8,9,10,11,12,13,14,15,16,17,18,19,20,21,22,23,24,25,26,27,28,29,30,31,32,33,34,35,36,37,38,39,40,41,42,43,44,45,46,47,48,49,50,51,52,53,54,55,56,57,58,59,60,61,62,63,64,65,66,67,68,69,70,71,72,73,74,75,76,77,78,79,80,81,82,83,84,85,86,87,88,89,90,91,92,93,94,95,96,97,98,99,100],"tree_info":[0,0,0,0,0,0,0,0,0,0,0,0,0,0,0,0,0,0,0,0,0,0,0,0,0,0,0,0,0,0,0,0,0,0,0,0,0,0,0,0,0,0,0,0,0,0,0,0,0,0,0,0,0,0,0,0,0,0,0,0,0,0,0,0,0,0,0,0,0,0,0,0,0,0,0,0,0,0,0,0,0,0,0,0,0,0,0,0,0,0,0,0,0,0,0,0,0,0,0,0],"trees":[{"base_weights":[-1.7299269E-4,-1.2372581E0,1.6603311E0,6.236738E-1,-1.3604414E0,-1.4101287E0,1.810087E0,-1.5020269E0,9.9333787E-1,-6.501668E-2,-1.4772732E0,6.380395E-1,-1.5220053E0,1.8735108E0,1.3925952E0,-9.3008417E-1,-1.7560318E0,1.5668652E0,-1.216566E0,1.9507489E-1,-8.0567914E-1,-1.6331493E0,-8.472058E-1,9.432546E-1,-1.3458554E0,-5.8882654E-1,-1.6339679E0,1.88309E0,-6.621638E-1,7.715792E-1,1.4623686E0,-1.7276827E-1,-2.1720279E-2,-1.981201E-1,-1.5749694E-1,1.6786945E-1,-9.483097E-3,-1.5622732E-1,-7.27173E-2,-8.1183754E-2,6.70548E-2,-8.952346E-2,5.5462357E-2,-1.6409482E-1,1.0189619E-1,-1.1877894E-1,-4.8094086E-2,-6.972125E-2,1.3326518E-1,-1.6357066E-1,1.4242196E-1,-1.4665945E-2,-1.4550863E-1,-1.6638122E-1,1.0697527E-1,1.1365608E-1,1.8946697E-1,-1.5896551E-1,3.3274706E-2,1.04615234E-1,-3.231631E-2,-4.36881E-3,1.4868794E-1],"categories":[],"categories_nodes":[],"categories_segments":[],"categories_sizes":[],"default_left":[0,0,0,0,0,0,0,0,0,0,0,0,0,0,0,0,0,0,0,0,0,0,0,0,0,0,0,0,0,0,0,0,0,0,0,0,0,0,0,0,0,0,0,0,0,0,0,0,0,0,0,0,0,0,0,0,0,0,0,0,0,0,0],"id":0,"left_children":[1,3,5,7,9,11,13,15,17,19,21,23,25,27,29,31,33,35,37,39,41,43,45,47,49,51,53,55,57,59,61,-1,-1,-1,-1,-1,-1,-1,-1,-1,-1,-1,-1,-1,-1,-1,-1,-1,-1,-1,-1,-1,-1,-1,-1,-1,-1,-1,-1,-1,-1,-1,-1],"loss_changes":[4.5775225E6,2.9273712E5,4.37465E5,6.2302117E4,1.81272E5,1.0139227E4,2.401775E4,1.7047051E3,8.560361E4,1.9087977E4,1.0789875E5,1.3892808E3,4.3823438E3,1.9129E4,5.1828594E3,2.0546514E3,3.284297E2,9.964734E3,2.3534395E3,3.511007E4,3.1376738E3,1.82185E4,2.7180578E4,1.2703607E3,2.4806042E2,1.7218423E3,3.0243047E3,6.78E3,2.7360894E3,3.6333062E3,3.970375E3,0E0,0E0,0E0,0E0,0E0,0E0,0E0,0E0,0E0,0E0,0E0,0E0,0E0,0E0,0E0,0E0,0E0,0E0,0E0,0E0,0E0,0E0,0E0,0E0,0E0,0E0,0E0,0E0,0E0,0E0,0E0,0E0],"parents":[2147483647,0,0,1,1,2,2,3,3,4,4,5,5,6,6,7,7,8,8,9,9,10,10,11,11,12,12,13,13,14,14,15,15,16,16,17,17,18,18,19,19,20,20,21,21,22,22,23,23,24,24,25,25,26,26,27,27,28,28,29,29,30,30],"right_children":[2,4,6,8,10,12,14,16,18,20,22,24,26,28,30,32,34,36,38,40,42,44,46,48,50,52,54,56,58,60,62,-1,-1,-1,-1,-1,-1,-1,-1,-1,-1,-1,-1,-1,-1,-1,-1,-1,-1,-1,-1,-1,-1,-1,-1,-1,-1,-1,-1,-1,-1,-1,-1],"split_conditions":[1.5933347E0,-1.0577669E0,-4.882659E-1,-8.367488E-2,-3.7005818E-1,-4.8035598E-1,-7.062992E-2,-1.1555669E0,6.945255E-2,6.945255E-2,6.13612E-1,6.945255E-2,-4.4375882E-1,1.7206515E0,-8.49312E-1,-2.7630502E-1,9.4634765E-1,4.142687E-1,1.5024872E0,-3.8992974E-1,5.288348E-1,2.8766692E0,-8.367488E-2,-2.3680231E-1,-2.6398906E-1,-1.8332404E-1,2.8766692E0,-3.720071E-1,-2.3680231E-1,1.965742E-1,-3.720071E-1,-1.7276827E-1,-2.1720279E-2,-1.981201E-1,-1.5749694E-1,1.6786945E-1,-9.483097E-3,-1.5622732E-1,-7.27173E-2,-8.1183754E-2,6.70548E-2,-8.952346E-2,5.5462357E-2,-1.6409482E-1,1.0189619E-1,-1.1877894E-1,-4.8094086E-2,-6.972125E-2,1.3326518E-1,-1.6357066E-1,1.4242196E-1,-1.4665945E-2,-1.4550863E-1,-1.6638122E-1,1.0697527E-1,1.1365608E-1,1.8946697E-1,-1.5896551E-1,3.3274706E-2,1.04615234E-1,-3.231631E-2,-4.36881E-3,1.4868794E-1],"split_indices":[7,15,8,6,4,23,3,6,6,6,21,6,18,8,6,4,21,7,21,6,6,17,6,6,21,24,17,8,6,12,8,0,0,0,0,0,0,0,0,0,0,0,0,0,0,0,0,0,0,0,0,0,0,0,0,0,0,0,0,0,0,0,0],"split_type":[0,0,0,0,0,0,0,0,0,0,0,0,0,0,0,0,0,0,0,0,0,0,0,0,0,0,0,0,0,0,0,0,0,0,0,0,0,0,0,0,0,0,0,0,0,0,0,0,0,0,0,0,0,0,0,0,0,0,0,0,0,0,0],"sum_hessian":[2.2283868E6,1.2770084E6,9.513784E5,7.928253E4,1.1977259E6,4.424337E4,9.07135E5,1.1744483E4,6.753805E4,9.90844E4,1.0986415E6,2.291284E3,4.1952086E4,7.874975E5,1.19637484E5,3.6132307E3,8.131253E3,5.362203E4,1.3916016E4,7.333334E4,2.5751053E4,8.8074675E5,2.1789473E5,1.9862336E3,3.050503E2,4.4948594E3,3.7457227E4,7.84534E5,2.9635059E3,1.2085249E4,1.0755224E5,1.7046173E3,1.9086133E3,3.6197668E3,4.5114863E3,5.0240895E4,3.3811345E3,8.1539053E3,5.762111E3,2.3521342E4,4.9812004E4,2.4160773E4,1.590281E3,8.7816475E5,2.581978E3,1.12904516E5,1.0499022E5,3.8087573E2,1.6053579E3,2.7652515E2,2.8525146E1,2.9766497E3,1.5182096E3,3.704866E4,4.085685E2,1.1984788E4,7.725492E5,1.5334093E3,1.4300966E3,9.661968E3,2.423281E3,1.722355E3,1.0582988E5],"tree_param":{"num_deleted":"0","num_feature":"25","num_nodes":"63","size_leaf_vector":"1"}},{"base_weights":[1.0267094E-3,-1.1195992E0,1.5074378E0,5.6369877E-1,-1.2309294E0,-1.2503263E0,1.6429563E0,-1.0154185E0,9.764761E-1,-6.488835E-2,-1.33602E0,2.4125752E-1,-1.384684E0,1.6949772E0,1.1939936E0,-1.1881391E0,2.8728843E-1,1.3070155E0,-8.65783E-1,-1.6800812E0,4.015522E-2,-1.4690582E0,-7.2121626E-1,-8.518703E-1,5.900825E-1,-5.522502E-1,-1.5059743E0,1.7040298E0,-5.5611336E-1,5.118146E-1,1.2625257E0,-1.5761027E-1,-9.7176336E-2,7.505425E-2,-1.4507781E-1,1.440417E-1,-1.1556677E-1,-1.3685946E-1,5.2394643E-3,-6.543219E-2,-1.8633865E-1,3.4273174E-2,-7.5867526E-2,-1.5688843E-1,-1.2490497E-1,-1.0387993E-1,-3.8835373E-2,-1.5844302E-1,-4.318269E-2,9.067527E-2,-5.4342397E-2,5.2515673E-3,-1.1023525E-1,-1.5260725E-1,7.983812E-2,1.0161533E-1,1.7149137E-1,-1.4004739E-1,3.0475965E-2,7.861652E-2,-3.5688803E-2,3.2241464E-2,1.3056035E-1],"categories":[],"categories_nodes":[],"categories_segments":[],"categories_sizes":[],"default_left":[0,0,0,0,0,0,0,0,0,0,0,0,0,0,0,0,0,0,0,0,0,0,0,0,0,0,0,0,0,0,0,0,0,0,0,0,0,0,0,0,0,0,0,0,0,0,0,0,0,0,0,0,0,0,0,0,0,0,0,0,0,0,0],"id":1,"left_children":[1,3,5,7,9,11,13,15,17,19,21,23,25,27,29,31,33,35,37,39,41,43,45,47,49,51,53,55,57,59,61,-1,-1,-1,-1,-1,-1,-1,-1,-1,-1,-1,-1,-1,-1,-1,-1,-1,-1,-1,-1,-1,-1,-1,-1,-1,-1,-1,-1,-1,-1,-1,-1],"loss_changes":[3.739792E6,2.3806488E5,3.5318E5,5.1368977E4,1.4601075E5,8.871094E3,2.103525E4,3.6749863E3,3.8045285E4,1.671402E4,8.9400125E4,1.395548E3,4.0990547E3,1.645075E4,4.3722344E3,1.2089531E3,1.541085E3,1.7404422E4,4.388179E3,1.1298496E3,2.235739E4,1.9733125E4,2.055489E4,2.717768E2,9.9624963E2,1.7186072E3,1.6426406E3,6.01775E3,2.3511372E3,2.03572E3,3.4417031E3,0E0,0E0,0E0,0E0,0E0,0E0,0E0,0E0,0E0,0E0,0E0,0E0,0E0,0E0,0E0,0E0,0E0,0E0,0E0,0E0,0E0,0E0,0E0,0E0,0E0,0E0,0E0,0E0,0E0,0E0,0E0,0E0],"parents":[2147483647,0,0,1,1,2,2,3,3,4,4,5,5,6,6,7,7,8,8,9,9,10,10,11,11,12,12,13,13,14,14,15,15,16,16,17,17,18,18,19,19,20,20,21,21,22,22,23,23,24,24,25,25,26,26,27,27,28,28,29,29,30,30],"right_children":[2,4,6,8,10,12,14,16,18,20,22,24,26,28,30,32,34,36,38,40,42,44,46,48,50,52,54,56,58,60,62,-1,-1,-1,-1,-1,-1,-1,-1,-1,-1,-1,-1,-1,-1,-1,-1,-1,-1,-1,-1,-1,-1,-1,-1,-1,-1,-1,-1,-1,-1,-1,-1],"split_conditions":[1.5933347E0,-1.0577669E0,-4.882659E-1,-1.7526428E-1,-3.7005818E-1,-3.7766418E-1,-1.868655E-2,4.9737856E-1,4.142687E-1,-1.6149491E0,7.151543E-1,-2.3680231E-1,-4.3663654E-1,1.7206515E0,-8.49312E-1,-3.072747E-1,6.945255E-2,6.945255E-2,2.4250016E0,-4.9210298E-1,6.945255E-2,-5.2578818E-2,-8.367488E-2,-1.1422306E0,6.945255E-2,-3.7653154E-1,2.8766692E0,-3.720071E-1,-2.3680231E-1,2.5045696E-1,-2.557483E-1,-1.5761027E-1,-9.7176336E-2,7.505425E-2,-1.4507781E-1,1.440417E-1,-1.1556677E-1,-1.3685946E-1,5.2394643E-3,-6.543219E-2,-1.8633865E-1,3.4273174E-2,-7.5867526E-2,-1.5688843E-1,-1.2490497E-1,-1.0387993E-1,-3.8835373E-2,-1.5844302E-1,-4.318269E-2,9.067527E-2,-5.4342397E-2,5.2515673E-3,-1.1023525E-1,-1.5260725E-1,7.983812E-2,1.0161533E-1,1.7149137E-1,-1.4004739E-1,3.0475965E-2,7.861652E-2,-3.5688803E-2,3.2241464E-2,1.3056035E-1],"split_indices":[7,15,8,7,4,5,1,17,7,6,21,6,18,8,6,4,6,6,21,23,6,21,6,9,6,24,17,8,6,18,8,0,0,0,0,0,0,0,0,0,0,0,0,0,0,0,0,0,0,0,0,0,0,0,0,0,0,0,0,0,0,0,0],"split_type":[0,0,0,0,0,0,0,0,0,0,0,0,0,0,0,0,0,0,0,0,0,0,0,0,0,0,0,0,0,0,0,0,0,0,0,0,0,0,0,0,0,0,0,0,0,0,0,0,0,0,0,0,0,0,0,0,0,0,0,0,0,0,0],"sum_hessian":[2.2153528E6,1.2703408E6,9.4501194E5,7.880555E4,1.1915351E6,4.4263023E4,9.007489E5,1.6330452E4,6.2475094E4,9.851014E4,1.093025E6,3.6575562E3,4.060547E4,8.072149E5,9.3534016E4,1.441881E4,1.911643E3,5.2971246E4,9.503849E3,6.014453E3,9.249569E4,8.9857894E5,1.944461E5,8.8445605E2,2.7731E3,5.1647246E3,3.5440742E4,8.0398194E5,3.2329414E3,8.539454E3,8.4994555E4,5.1602163E3,9.258593E3,1.5097983E3,4.0184467E2,5.0249676E4,2.72157E3,6.140631E3,3.3632178E3,9.1253894E2,5.101914E3,6.708585E4,2.5409832E4,6.1811225E5,2.8046672E5,9.9505805E4,9.494029E4,3.2131226E2,5.631438E2,2.1677039E3,6.053962E2,2.4605618E3,2.7041628E3,3.5134645E4,3.0609976E2,1.2524269E4,7.914577E5,1.6318073E3,1.6011342E3,6.489924E3,2.0495308E3,3.7243496E3,8.127021E4],"tree_param":{"num_deleted":"0","num_feature":"25","num_nodes":"63","size_leaf_vector":"1"}},{"base_weights":[-7.7000255E-4,-1.0244215E0,1.3876363E0,-1.1907047E0,-5.459374E-2,-1.1564339E0,1.5132685E0,-9.1647044E-2,-1.2961724E0,9.041248E-1,-4.4261247E-1,6.0215455E-1,-1.2587111E0,1.5799093E0,1.1958342E0,1.5557487E-1,-6.8433815E-1,-1.4313239E0,-1.0286576E0,-1.1507784E0,1.1336666E0,-8.000376E-1,-1.2638225E-1,8.508921E-1,-1.0701203E0,-4.9025813E-1,-1.3694948E0,1.5879285E0,-6.519098E-1,1.3032666E0,8.504475E-1,3.9741464E-2,-1.1916708E-1,-1.2653007E-1,-3.949652E-3,-1.4378646E-1,1.21090524E-1,-1.3083428E-1,-6.7200206E-2,-1.3296854E-1,-5.6520947E-3,1.3959152E-1,-6.864762E-2,-1.0357358E-1,-2.1334518E-2,2.0883048E-2,-5.3414743E-2,-8.030429E-2,1.1823435E-1,1.4662555E-2,-1.7892644E-1,6.005165E-3,-9.966031E-2,-1.3918586E-1,8.245849E-2,9.834495E-2,1.5977623E-1,-1.4258708E-1,2.016901E-2,1.31908E-1,-4.0346578E-2,2.4550637E-2,1.0464724E-1],"categories":[],"categories_nodes":[],"categories_segments":[],"categories_sizes":[],"default_left":[0,0,0,0,0,0,0,0,0,0,0,0,0,0,0,0,0,0,0,0,0,0,0,0,0,0,0,0,0,0,0,0,0,0,0,0,0,0,0,0,0,0,0,0,0,0,0,0,0,0,0,0,0,0,0,0,0,0,0,0,0,0,0],"id":2,"left_children":[1,3,5,7,9,11,13,15,17,19,21,23,25,27,29,31,33,35,37,39,41,43,45,47,49,51,53,55,57,59,61,-1,-1,-1,-1,-1,-1,-1,-1,-1,-1,-1,-1,-1,-1,-1,-1,-1,-1,-1,-1,-1,-1,-1,-1,-1,-1,-1,-1,-1,-1,-1,-1],"loss_changes":[3.0918422E6,2.0193912E5,2.95084E5,1.23905375E5,6.817956E4,7.8152383E3,1.8609125E4,1.3714451E4,3.5262125E4,2.4908996E4,1.4747002E4,9.944677E2,3.4947773E3,1.301525E4,5.6633594E3,2.1520043E4,1.0320821E4,1.12E4,3.26545E4,1.0387656E3,2.2674234E4,8.469117E3,9.462565E3,1.1411365E3,2.712768E2,1.4420547E3,1.7619531E3,4.305125E3,1.7206791E3,3.1430469E3,4.294961E3,0E0,0E0,0E0,0E0,0E0,0E0,0E0,0E0,0E0,0E0,0E0,0E0,0E0,0E0,0E0,0E0,0E0,0E0,0E0,0E0,0E0,0E0,0E0,0E0,0E0,0E0,0E0,0E0,0E0,0E0,0E0,0E0],"parents":[2147483647,0,0,1,1,2,2,3,3,4,4,5,5,6,6,7,7,8,8,9,9,10,10,11,11,12,12,13,13,14,14,15,15,16,16,17,17,18,18,19,19,20,20,21,21,22,22,23,23,24,24,25,25,26,26,27,27,28,28,29,29,30,30],"right_children":[2,4,6,8,10,12,14,16,18,20,22,24,26,28,30,32,34,36,38,40,42,44,46,48,50,52,54,56,58,60,62,-1,-1,-1,-1,-1,-1,-1,-1,-1,-1,-1,-1,-1,-1,-1,-1,-1,-1,-1,-1,-1,-1,-1,-1,-1,-1,-1,-1,-1,-1,-1,-1],"split_conditions":[1.5933347E0,1.1533834E0,-4.882659E-1,-3.7005818E-1,-1.185697E0,-4.8035598E-1,-1.2907432E-1,-1.0319774E0,1.6307952E-2,-8.367488E-2,-8.367488E-2,6.945255E-2,-4.3663654E-1,1.7206515E0,2.5269675E-1,2.2257997E-1,-8.367488E-2,2.8766692E0,-8.367488E-2,-2.6464563E-2,6.945255E-2,1.5315741E0,6.945255E-2,-2.3680231E-1,-7.485484E-1,-3.8269642E-1,2.8766692E0,-3.720071E-1,-2.3680231E-1,1.7206515E0,-1.13966E0,3.9741464E-2,-1.1916708E-1,-1.2653007E-1,-3.949652E-3,-1.4378646E-1,1.21090524E-1,-1.3083428E-1,-6.7200206E-2,-1.3296854E-1,-5.6520947E-3,1.3959152E-1,-6.864762E-2,-1.0357358E-1,-2.1334518E-2,2.0883048E-2,-5.3414743E-2,-8.030429E-2,1.1823435E-1,1.4662555E-2,-1.7892644E-1,6.005165E-3,-9.966031E-2,-1.3918586E-1,8.245849E-2,9.834495E-2,1.5977623E-1,-1.4258708E-1,2.016901E-2,1.31908E-1,-4.0346578E-2,2.4550637E-2,1.0464724E-1],"split_indices":[7,21,8,4,15,23,1,21,21,6,6,6,18,8,3,6,6,17,6,14,6,17,6,6,17,24,17,8,6,8,9,0,0,0,0,0,0,0,0,0,0,0,0,0,0,0,0,0,0,0,0,0,0,0,0,0,0,0,0,0,0,0,0],"split_type":[0,0,0,0,0,0,0,0,0,0,0,0,0,0,0,0,0,0,0,0,0,0,0,0,0,0,0,0,0,0,0,0,0,0,0,0,0,0,0,0,0,0,0,0,0,0,0,0,0,0,0,0,0,0,0,0,0,0,0,0,0,0,0],"sum_hessian":[2.1754458E6,1.25221E6,9.232357E5,1.0689341E6,1.8327595E5,4.3445707E4,8.7979E5,9.359551E4,9.753386E5,5.280465E4,1.30471305E5,2.3876025E3,4.1058105E4,7.271345E5,1.526555E5,6.6046914E4,2.7548596E4,6.479716E5,3.2736694E5,5.305426E3,4.7499223E4,6.1245688E4,6.922562E4,2.0788774E3,3.0872525E2,5.1739956E3,3.588411E4,7.2453144E5,2.6030771E3,1.1643548E5,3.6220016E4,5.599596E4,1.0050951E4,1.4491599E4,1.3056997E4,6.4637206E5,1.599619E3,1.8348073E5,1.438862E5,4.5597144E3,7.4571124E2,4.151755E4,5.981671E3,4.3692047E4,1.755364E4,3.7993047E4,3.1232566E4,3.468218E2,1.7320555E3,1.1498094E2,1.9374431E2,2.4797815E3,2.694214E3,3.5522402E4,3.6170715E2,1.1599582E4,7.129318E5,1.3648732E3,1.2382039E3,1.153668E5,1.0686781E3,8.864883E3,2.7355135E4],"tree_param":{"num_deleted":"0","num_feature":"25","num_nodes":"63","size_leaf_vector":"1"}},{"base_weights":[8.305952E-4,-9.398584E-1,1.2916275E0,-1.0974593E0,-6.351923E-2,-1.0652304E0,1.4087685E0,-7.4983574E-2,-1.1983259E0,7.9301697E-1,-4.2553997E-1,2.224452E-1,-1.1833576E0,1.4588397E0,1.0069574E0,1.5139975E-1,-6.249351E-1,-1.3253853E0,-9.405475E-1,-1.0524278E0,1.021521E0,-5.2575845E-1,5.83013E-1,-7.4931127E-1,5.3163594E-1,-5.3797364E-1,-1.3178656E0,1.466737E0,-4.246721E-1,3.87032E-1,1.0716627E0,4.699658E-2,-6.964525E-2,-1.1455103E-1,-4.5866664E-3,-1.3319159E-1,1.1218287E-1,-1.2085748E-1,-6.038916E-2,-1.2578258E-1,-7.2784475E-3,1.2794733E-1,-6.169789E-2,-8.2152426E-2,-2.5301566E-2,1.579613E-1,2.6103098E-2,-9.641742E-2,1.01084195E-1,1.04762614E-1,1.0198326E-3,-4.8327195E-3,-9.0362094E-2,-1.3365175E-1,6.501778E-2,8.5490294E-2,1.4768846E-1,-1.135903E-1,2.7621394E-2,6.9173604E-2,-2.5255958E-2,1.1669172E-1,6.981809E-2],"categories":[],"categories_nodes":[],"categories_segments":[],"categories_sizes":[],"default_left":[0,0,0,0,0,0,0,0,0,0,0,0,0,0,0,0,0,0,0,0,0,0,0,0,0,0,0,0,0,0,0,0,0,0,0,0,0,0,0,0,0,0,0,0,0,0,0,0,0,0,0,0,0,0,0,0,0,0,0,0,0,0,0],"id":3,"left_children":[1,3,5,7,9,11,13,15,17,19,21,23,25,27,29,31,33,35,37,39,41,43,45,47,49,51,53,55,57,59,61,-1,-1,-1,-1,-1,-1,-1,-1,-1,-1,-1,-1,-1,-1,-1,-1,-1,-1,-1,-1,-1,-1,-1,-1,-1,-1,-1,-1,-1,-1,-1,-1],"loss_changes":[2.5779355E6,1.6961438E5,2.470955E5,1.073515E5,5.8046938E4,6.4462812E3,1.71525E4,1.1636469E4,3.1030375E4,2.3453238E4,1.3300131E4,1.0705548E3,3.3689492E3,1.127775E4,3.789336E3,1.7883686E4,8.215952E3,1.0143875E4,2.8225219E4,1.2329639E3,2.0916914E4,9.654957E3,3.8161729E3,3.262718E2,7.27145E2,1.198868E3,1.1799609E3,4.686125E3,1.5787043E3,1.7406631E3,3.042625E3,0E0,0E0,0E0,0E0,0E0,0E0,0E0,0E0,0E0,0E0,0E0,0E0,0E0,0E0,0E0,0E0,0E0,0E0,0E0,0E0,0E0,0E0,0E0,0E0,0E0,0E0,0E0,0E0,0E0,0E0,0E0,0E0],"parents":[2147483647,0,0,1,1,2,2,3,3,4,4,5,5,6,6,7,7,8,8,9,9,10,10,11,11,12,12,13,13,14,14,15,15,16,16,17,17,18,18,19,19,20,20,21,21,22,22,23,23,24,24,25,25,26,26,27,27,28,28,29,29,30,30],"right_children":[2,4,6,8,10,12,14,16,18,20,22,24,26,28,30,32,34,36,38,40,42,44,46,48,50,52,54,56,58,60,62,-1,-1,-1,-1,-1,-1,-1,-1,-1,-1,-1,-1,-1,-1,-1,-1,-1,-1,-1,-1,-1,-1,-1,-1,-1,-1,-1,-1,-1,-1,-1,-1],"split_conditions":[1.5933347E0,1.1140085E0,-4.882659E-1,-3.7005818E-1,-1.0577669E0,-3.7766418E-1,-2.8661348E-2,-1.0319774E0,2.4337882E-2,-8.367488E-2,2.9587949E-2,-2.3680231E-1,-4.1746283E-1,1.7206515E0,-8.49312E-1,6.945255E-2,-8.367488E-2,2.8766692E0,-8.367488E-2,-8.914527E-2,6.945255E-2,-8.367488E-2,-3.1459916E-1,1.0129687E0,-1.5847817E-1,-1.3086942E0,2.8766692E0,-3.720071E-1,-2.3680231E-1,1.7052431E-1,5.156302E-1,4.699658E-2,-6.964525E-2,-1.1455103E-1,-4.5866664E-3,-1.3319159E-1,1.1218287E-1,-1.2085748E-1,-6.038916E-2,-1.2578258E-1,-7.2784475E-3,1.2794733E-1,-6.169789E-2,-8.2152426E-2,-2.5301566E-2,1.579613E-1,2.6103098E-2,-9.641742E-2,1.01084195E-1,1.04762614E-1,1.0198326E-3,-4.8327195E-3,-9.0362094E-2,-1.3365175E-1,6.501778E-2,8.5490294E-2,1.4768846E-1,-1.135903E-1,2.7621394E-2,6.9173604E-2,-2.5255958E-2,1.1669172E-1,6.981809E-2],"split_indices":[7,21,8,4,15,5,1,21,21,6,22,6,18,8,6,6,6,17,6,14,6,6,5,9,17,6,17,8,6,18,1,0,0,0,0,0,0,0,0,0,0,0,0,0,0,0,0,0,0,0,0,0,0,0,0,0,0,0,0,0,0,0,0],"split_type":[0,0,0,0,0,0,0,0,0,0,0,0,0,0,0,0,0,0,0,0,0,0,0,0,0,0,0,0,0,0,0,0,0,0,0,0,0,0,0,0,0,0,0,0,0,0,0,0,0,0,0,0,0,0,0,0,0,0,0,0,0,0,0],"sum_hessian":[2.1230862E6,1.2280936E6,8.949926E5,1.0408982E6,1.8719544E5,4.237648E4,8.526161E5,9.346395E4,9.474342E5,5.561349E4,1.3158195E5,3.5607495E3,3.881573E4,7.581391E5,9.447699E4,6.620989E4,2.7254066E4,6.346231E5,3.128111E5,6.127E3,4.948649E4,1.196891E5,1.1892854E4,8.591381E2,2.7016116E3,6.695413E3,3.2120316E4,7.549738E5,3.1653315E3,8.929797E3,8.5547195E4,4.8127312E4,1.8082574E4,1.435138E4,1.29026875E4,6.3293456E5,1.6885758E3,1.741554E5,1.3865569E5,5.0648E3,1.0622003E3,4.275561E4,6.730883E3,5.742004E4,6.226906E4,2.90314E3,8.989714E3,7.6607513E2,9.306303E1,1.3573915E3,1.3442201E3,2.8628452E3,3.8325676E3,3.1819078E4,3.0123892E2,1.2318601E4,7.426552E5,1.5707634E3,1.5945681E3,6.0482866E3,2.88151E3,6.8160984E4,1.7386217E4],"tree_param":{"num_deleted":"0","num_feature":"25","num_nodes":"63","size_leaf_vector":"1"}},{"base_weights":[6.952791E-4,-8.663244E-1,1.2109436E0,-1.0358937E0,-1.4582872E-1,-9.802504E-1,1.3215835E0,-8.3830155E-2,-1.1347082E0,7.1069527E-1,-4.389256E-1,-6.1164342E-2,-1.1273067E0,1.3876556E0,1.010226E0,2.3505141E-1,-4.6939206E-1,-1.2443702E0,-9.1628903E-1,-9.799282E-1,9.330081E-1,-5.220212E-1,6.328516E-1,-1.5628128E0,3.3185565E-1,-5.139711E-1,-1.1984146E0,1.3949108E0,-4.902496E-1,-3.9846712E-1,1.0344598E0,4.6207283E-2,-9.860135E-2,-1.553004E-1,-3.2033768E-2,-9.041072E-2,-1.2965296E-1,-1.1529727E-1,-6.1017107E-2,-6.4512394E-2,-1.4324753E-1,1.2010521E-1,-6.1624467E-2,-8.006799E-2,-2.5575513E-2,1.6297866E-1,2.1211816E-2,1.4760129E-1,-1.5894678E-1,-1.2894553E-1,4.3028545E-2,5.518977E-3,-9.073859E-2,-1.2116696E-1,4.2866986E-2,8.158003E-2,1.404671E-1,-1.1504876E-1,2.014529E-2,-1.5733191E-1,9.297818E-2,1.11668244E-1,6.7805424E-2],"categories":[],"categories_nodes":[],"categories_segments":[],"categories_sizes":[],"default_left":[0,0,0,0,0,0,0,0,0,0,0,0,0,0,0,0,0,0,0,0,0,0,0,0,0,0,0,0,0,0,0,0,0,0,0,0,0,0,0,0,0,0,0,0,0,0,0,0,0,0,0,0,0,0,0,0,0,0,0,0,0,0,0],"id":4,"left_children":[1,3,5,7,9,11,13,15,17,19,21,23,25,27,29,31,33,35,37,39,41,43,45,47,49,51,53,55,57,59,61,-1,-1,-1,-1,-1,-1,-1,-1,-1,-1,-1,-1,-1,-1,-1,-1,-1,-1,-1,-1,-1,-1,-1,-1,-1,-1,-1,-1,-1,-1,-1,-1],"loss_changes":[2.1596195E6,1.4649862E5,2.0825988E5,9.1316875E4,5.735037E4,5.580699E3,1.682125E4,1.1221908E4,2.1062125E4,2.1891336E4,1.5158695E4,3.3624287E3,1.5518086E3,9.191625E3,4.887453E3,1.3848813E4,6.6728574E3,1.038925E4,2.1296188E4,1.0247109E3,2.1376504E4,1.1719863E4,5.1365825E3,9.8072266E1,7.2118164E2,8.2849854E2,6.884414E2,3.797125E3,1.1862273E3,3.7806548E3,4.1234688E3,0E0,0E0,0E0,0E0,0E0,0E0,0E0,0E0,0E0,0E0,0E0,0E0,0E0,0E0,0E0,0E0,0E0,0E0,0E0,0E0,0E0,0E0,0E0,0E0,0E0,0E0,0E0,0E0,0E0,0E0,0E0,0E0],"parents":[2147483647,0,0,1,1,2,2,3,3,4,4,5,5,6,6,7,7,8,8,9,9,10,10,11,11,12,12,13,13,14,14,15,15,16,16,17,17,18,18,19,19,20,20,21,21,22,22,23,23,24,24,25,25,26,26,27,27,28,28,29,29,30,30],"right_children":[2,4,6,8,10,12,14,16,18,20,22,24,26,28,30,32,34,36,38,40,42,44,46,48,50,52,54,56,58,60,62,-1,-1,-1,-1,-1,-1,-1,-1,-1,-1,-1,-1,-1,-1,-1,-1,-1,-1,-1,-1,-1,-1,-1,-1,-1,-1,-1,-1,-1,-1,-1,-1],"split_conditions":[1.5933347E0,8.6090285E-1,-4.882659E-1,-3.7005818E-1,-1.0577669E0,-3.7352216E-1,-1.2497054E-1,-4.8035598E-1,-3.0481312E-2,-8.367488E-2,3.1071875E-2,-1.6149491E0,-4.4375882E-1,1.7206515E0,-3.720071E-1,2.2257997E-1,-1.4618217E0,-4.1100827E-1,-8.367488E-2,-8.49312E-1,6.945255E-2,-8.367488E-2,-3.1567502E-1,-3.0982392E0,-4.3891232E-2,-3.8269642E-1,2.8766692E0,-3.720071E-1,-2.3680231E-1,3.7570742E-1,3.5050988E-1,4.6207283E-2,-9.860135E-2,-1.553004E-1,-3.2033768E-2,-9.041072E-2,-1.2965296E-1,-1.1529727E-1,-6.1017107E-2,-6.4512394E-2,-1.4324753E-1,1.2010521E-1,-6.1624467E-2,-8.006799E-2,-2.5575513E-2,1.6297866E-1,2.1211816E-2,1.4760129E-1,-1.5894678E-1,-1.2894553E-1,4.3028545E-2,5.518977E-3,-9.073859E-2,-1.2116696E-1,4.2866986E-2,8.158003E-2,1.404671E-1,-1.1504876E-1,2.014529E-2,-1.5733191E-1,9.297818E-2,1.11668244E-1,6.7805424E-2],"split_indices":[7,21,8,4,15,5,3,23,21,6,22,6,18,8,8,6,6,18,6,6,6,6,5,22,14,24,17,8,6,6,3,0,0,0,0,0,0,0,0,0,0,0,0,0,0,0,0,0,0,0,0,0,0,0,0,0,0,0,0,0,0,0,0],"split_type":[0,0,0,0,0,0,0,0,0,0,0,0,0,0,0,0,0,0,0,0,0,0,0,0,0,0,0,0,0,0,0,0,0,0,0,0,0,0,0,0,0,0,0,0,0,0,0,0,0,0,0,0,0,0,0,0,0,0,0,0,0,0,0],"sum_hessian":[2.0581326E6,1.1990999E6,8.5903275E5,9.7065506E5,2.2844481E5,4.1289883E4,8.177428E5,9.127129E4,8.7938375E5,5.8241848E4,1.7020297E5,5.695435E3,3.559445E4,6.7458744E5,1.4315542E5,4.9955582E4,4.131571E4,5.8544406E5,2.939397E5,6.7682095E3,5.1473637E4,1.5795697E5,1.2245998E4,1.1808135E3,4.5146216E3,3.6988135E3,3.1895635E4,6.7199144E5,2.5959485E3,2.4207893E3,1.4073464E5,4.21244E4,7.8311826E3,4.9947686E3,3.632094E4,7.7817445E4,5.0762662E5,1.6576842E5,1.2817128E5,3.8915679E3,2.8766416E3,4.388167E4,7.591964E3,7.7181375E4,8.077559E4,3.6334956E3,8.612503E3,9.79458E0,1.1710189E3,2.577029E2,4.256919E3,1.5120953E3,2.1867183E3,3.1638148E4,2.57486E2,1.1139372E4,6.608521E5,1.3278435E3,1.268105E3,1.284473E3,1.1363162E3,1.1435161E5,2.6383025E4],"tree_param":{"num_deleted":"0","num_feature":"25","num_nodes":"63","size_leaf_vector":"1"}},{"base_weights":[-1.042504E-3,-8.0853546E-1,1.1422745E0,-9.4004124E-1,1.7327014E-2,-9.325584E-1,1.2478715E0,-6.333079E-2,-1.0294456E0,7.045798E-1,-2.9562473E-1,1.4515077E-1,-1.0365673E0,1.3307283E0,9.9254626E-1,-6.489797E-1,1.1977416E-1,-1.1373397E0,-7.055834E-1,-8.522952E-1,8.9624137E-1,-4.0606672E-1,4.8390555E-1,-9.323163E-1,3.7691596E-1,-4.8646867E-1,-1.1545494E0,1.3374152E0,-4.438533E-1,1.0821393E0,6.787741E-1,-3.6510818E-2,-1.2118753E-1,4.836142E-2,-5.6350507E-2,-1.1475744E-1,9.160676E-2,-9.924193E-2,-3.860019E-2,-1.03429876E-1,1.4074131E-2,1.1106334E-1,-4.5511756E-2,-6.77823E-2,-1.7556464E-2,9.496394E-3,8.96483E-2,-3.5395216E-2,-1.559233E-1,9.329256E-2,-1.0285533E-2,-6.1878E-3,-8.128424E-2,-1.18048385E-1,-4.19681E-3,8.249027E-2,1.3465321E-1,-1.0221218E-1,1.7886987E-2,-7.758837E-3,1.1018117E-1,1.3740482E-2,8.6342365E-2],"categories":[],"categories_nodes":[],"categories_segments":[],"categories_sizes":[],"default_left":[0,0,0,0,0,0,0,0,0,0,0,0,0,0,0,0,0,0,0,0,0,0,0,0,0,0,0,0,0,0,0,0,0,0,0,0,0,0,0,0,0,0,0,0,0,0,0,0,0,0,0,0,0,0,0,0,0,0,0,0,0,0,0],"id":5,"left_children":[1,3,5,7,9,11,13,15,17,19,21,23,25,27,29,31,33,35,37,39,41,43,45,47,49,51,53,55,57,59,61,-1,-1,-1,-1,-1,-1,-1,-1,-1,-1,-1,-1,-1,-1,-1,-1,-1,-1,-1,-1,-1,-1,-1,-1,-1,-1,-1,-1,-1,-1,-1,-1],"loss_changes":[1.8339946E6,1.2644369E5,1.8015812E5,7.872044E4,3.4396117E4,4.4639414E3,1.6551875E4,9.966648E3,3.1845438E4,1.4931902E4,9.460618E3,8.758379E2,2.3565352E3,7.0105625E3,5.388547E3,3.536873E3,1.7602688E4,1.4368125E4,2.0877156E4,9.9154834E2,1.2908746E4,6.02904E3,2.1882083E3,2.2458234E2,7.699496E2,8.8896826E2,8.627969E2,2.748875E3,7.9902954E2,3.4023594E3,4.2567383E3,0E0,0E0,0E0,0E0,0E0,0E0,0E0,0E0,0E0,0E0,0E0,0E0,0E0,0E0,0E0,0E0,0E0,0E0,0E0,0E0,0E0,0E0,0E0,0E0,0E0,0E0,0E0,0E0,0E0,0E0,0E0,0E0],"parents":[2147483647,0,0,1,1,2,2,3,3,4,4,5,5,6,6,7,7,8,8,9,9,10,10,11,11,12,12,13,13,14,14,15,15,16,16,17,17,18,18,19,19,20,20,21,21,22,22,23,23,24,24,25,25,26,26,27,27,28,28,29,29,30,30],"right_children":[2,4,6,8,10,12,14,16,18,20,22,24,26,28,30,32,34,36,38,40,42,44,46,48,50,52,54,56,58,60,62,-1,-1,-1,-1,-1,-1,-1,-1,-1,-1,-1,-1,-1,-1,-1,-1,-1,-1,-1,-1,-1,-1,-1,-1,-1,-1,-1,-1,-1,-1,-1,-1],"split_conditions":[1.5933347E0,1.2841165E0,-4.882659E-1,-3.7005818E-1,-1.0577669E0,-3.7766418E-1,-1.9557299E-1,-3.8992974E-1,2.411669E-1,-8.367488E-2,2.4088602E0,-3.8992974E-1,-4.1746283E-1,1.7206515E0,1.8511061E-1,-3.6771852E-1,6.945255E-2,4.3661635E-2,-8.367488E-2,-5.5824414E-2,6.945255E-2,-8.367488E-2,2.840526E0,-1.0024395E0,-2.6050597E-1,-1.1555669E0,3.403179E-2,-3.720071E-1,-2.3680231E-1,-3.720071E-1,-1.13966E0,-3.6510818E-2,-1.2118753E-1,4.836142E-2,-5.6350507E-2,-1.1475744E-1,9.160676E-2,-9.924193E-2,-3.860019E-2,-1.03429876E-1,1.4074131E-2,1.1106334E-1,-4.5511756E-2,-6.77823E-2,-1.7556464E-2,9.496394E-3,8.96483E-2,-3.5395216E-2,-1.559233E-1,9.329256E-2,-1.0285533E-2,-6.1878E-3,-8.128424E-2,-1.18048385E-1,-4.19681E-3,8.249027E-2,1.3465321E-1,-1.0221218E-1,1.7886987E-2,-7.758837E-3,1.1018117E-1,1.3740482E-2,8.6342365E-2],"split_indices":[7,21,8,4,15,5,1,6,21,6,17,6,18,8,3,23,6,22,6,14,6,6,21,6,17,6,22,8,6,8,9,0,0,0,0,0,0,0,0,0,0,0,0,0,0,0,0,0,0,0,0,0,0,0,0,0,0,0,0,0,0,0,0],"split_type":[0,0,0,0,0,0,0,0,0,0,0,0,0,0,0,0,0,0,0,0,0,0,0,0,0,0,0,0,0,0,0,0,0,0,0,0,0,0,0,0,0,0,0,0,0,0,0,0,0,0,0,0,0,0,0,0,0,0,0,0,0,0,0],"sum_hessian":[1.9865168E6,1.164244E6,8.2227275E5,1.0043212E6,1.5992273E5,3.9821832E4,7.8245094E5,9.29402E4,9.11381E5,5.0037473E4,1.0988526E5,3.5048813E3,3.631695E4,5.907421E5,1.9170881E5,2.2136271E4,7.080393E4,6.836288E5,2.2775219E5,5.484358E3,4.4553113E4,9.624936E4,1.3635899E4,6.199121E2,2.8849692E3,6.414424E3,2.9902527E4,5.885247E5,2.2173953E3,1.4912572E5,4.2583105E4,1.4716369E4,7.4199033E3,4.6202047E4,2.4601883E4,6.802388E5,3.3900303E3,1.2002413E5,1.07728055E5,4.6348433E3,8.495148E2,3.845279E4,6.1003257E3,4.4170953E4,5.2078402E4,7.0196357E3,6.616263E3,3.232559E2,2.9665622E2,1.3358735E3,1.5490957E3,2.788265E3,3.626159E3,2.9221312E4,6.812143E2,1.0287687E4,5.78237E5,1.1494034E3,1.0679918E3,2.4873552E3,1.4663836E5,1.0830673E4,3.1752434E4],"tree_param":{"num_deleted":"0","num_feature":"25","num_nodes":"63","size_leaf_vector":"1"}},{"base_weights":[1.9818572E-3,-7.505685E-1,1.084086E0,-9.0401167E-1,-1.22558855E-1,-8.5565144E-1,1.1846781E0,-6.868E-2,-9.961175E-1,6.011808E-1,-3.8115975E-1,-7.189642E-2,-9.8495203E-1,1.2576972E0,8.874867E-1,2.0806894E-1,-4.0313172E-1,-1.1456454E0,-8.3491236E-1,-7.0092845E-1,8.472435E-1,-4.587618E-1,5.795706E-1,-1.4345696E0,2.6458228E-1,-4.0495017E-1,-1.057004E0,1.2645037E0,-3.9510155E-1,9.964544E-1,6.351147E-1,3.99964E-2,-8.2920365E-2,-8.374094E-2,-8.8445945E-3,-1.1552744E-1,6.8444185E-2,-1.033863E-1,-5.6922592E-2,-8.4664986E-2,1.6935721E-2,1.0429549E-1,-5.837321E-2,-5.5367857E-2,5.3741815E-3,1.4003436E-1,2.1626748E-2,1.2221652E-1,-1.4614339E-1,4.7206704E-2,-5.0627567E-2,9.796174E-4,-1.0009418E-1,-1.0965544E-1,-4.9715158E-2,7.146742E-2,1.2745376E-1,-8.27017E-2,3.1706844E-2,6.094069E-2,1.0664008E-1,1.8493433E-2,7.992163E-2],"categories":[],"categories_nodes":[],"categories_segments":[],"categories_sizes":[],"default_left":[0,0,0,0,0,0,0,0,0,0,0,0,0,0,0,0,0,0,0,0,0,0,0,0,0,0,0,0,0,0,0,0,0,0,0,0,0,0,0,0,0,0,0,0,0,0,0,0,0,0,0,0,0,0,0,0,0,0,0,0,0,0,0],"id":6,"left_children":[1,3,5,7,9,11,13,15,17,19,21,23,25,27,29,31,33,35,37,39,41,43,45,47,49,51,53,55,57,59,61,-1,-1,-1,-1,-1,-1,-1,-1,-1,-1,-1,-1,-1,-1,-1,-1,-1,-1,-1,-1,-1,-1,-1,-1,-1,-1,-1,-1,-1,-1,-1,-1],"loss_changes":[1.5589115E6,1.08804E5,1.5321756E5,6.9813625E4,4.1494773E4,3.923211E3,1.6198875E4,8.341155E3,1.969925E4,1.870064E4,1.2178246E4,2.5146191E3,1.3883223E3,6.74225E3,4.0486484E3,9.815881E3,5.576312E3,7.472375E3,2.0787906E4,1.1766294E3,1.37483125E4,7.3520547E3,3.640065E3,7.929834E1,7.0373376E2,9.080962E2,6.5395703E2,3.2916875E3,7.565152E2,2.7834531E3,3.2804023E3,0E0,0E0,0E0,0E0,0E0,0E0,0E0,0E0,0E0,0E0,0E0,0E0,0E0,0E0,0E0,0E0,0E0,0E0,0E0,0E0,0E0,0E0,0E0,0E0,0E0,0E0,0E0,0E0,0E0,0E0,0E0,0E0],"parents":[2147483647,0,0,1,1,2,2,3,3,4,4,5,5,6,6,7,7,8,8,9,9,10,10,11,11,12,12,13,13,14,14,15,15,16,16,17,17,18,18,19,19,20,20,21,21,22,22,23,23,24,24,25,25,26,26,27,27,28,28,29,29,30,30],"right_children":[2,4,6,8,10,12,14,16,18,20,22,24,26,28,30,32,34,36,38,40,42,44,46,48,50,52,54,56,58,60,62,-1,-1,-1,-1,-1,-1,-1,-1,-1,-1,-1,-1,-1,-1,-1,-1,-1,-1,-1,-1,-1,-1,-1,-1,-1,-1,-1,-1,-1,-1,-1,-1],"split_conditions":[1.5933347E0,8.6090285E-1,-4.882659E-1,-3.7005818E-1,-9.566821E-1,-3.7352216E-1,-1.45034E-1,-4.8035598E-1,-2.4038243E-1,-1.7526428E-1,3.1071875E-2,-1.6149491E0,-4.4375882E-1,1.7206515E0,1.6439326E-1,2.2257997E-1,-8.367488E-2,4.3661635E-2,-8.367488E-2,1.4638042E0,4.142687E-1,3.1274545E0,-2.9568985E-1,-3.0982392E0,4.896594E-2,-2.2775368E-1,1.042202E0,-3.720071E-1,-8.367488E-2,-8.49312E-1,-1.13966E0,3.99964E-2,-8.2920365E-2,-8.374094E-2,-8.8445945E-3,-1.1552744E-1,6.8444185E-2,-1.033863E-1,-5.6922592E-2,-8.4664986E-2,1.6935721E-2,1.0429549E-1,-5.837321E-2,-5.5367857E-2,5.3741815E-3,1.4003436E-1,2.1626748E-2,1.2221652E-1,-1.4614339E-1,4.7206704E-2,-5.0627567E-2,9.796174E-4,-1.0009418E-1,-1.0965544E-1,-4.9715158E-2,7.146742E-2,1.2745376E-1,-8.27017E-2,3.1706844E-2,6.094069E-2,1.0664008E-1,1.8493433E-2,7.992163E-2],"split_indices":[7,21,8,4,15,5,1,23,21,7,22,6,18,8,3,6,6,22,6,16,7,21,5,22,16,24,21,8,6,6,9,0,0,0,0,0,0,0,0,0,0,0,0,0,0,0,0,0,0,0,0,0,0,0,0,0,0,0,0,0,0,0,0],"split_type":[0,0,0,0,0,0,0,0,0,0,0,0,0,0,0,0,0,0,0,0,0,0,0,0,0,0,0,0,0,0,0,0,0,0,0,0,0,0,0,0,0,0,0,0,0,0,0,0,0,0,0,0,0,0,0,0,0,0,0,0,0,0,0],"sum_hessian":[1.9143282E6,1.1290969E6,7.852313E5,9.073913E5,2.217056E5,3.8713055E4,7.4651825E5,9.011511E4,8.172762E5,5.8363594E4,1.63342E5,5.4824946E3,3.323056E4,5.9927494E5,1.472433E5,4.9311598E4,4.0803516E4,4.2399128E5,3.9328494E5,9.275875E3,4.908772E4,1.5113477E5,1.220724E4,1.0850382E3,4.3974565E3,3.6727065E3,2.9557854E4,5.968174E5,2.4575823E3,1.0283768E5,4.440561E4,4.1613695E4,7.6979043E3,1.7143379E4,2.3660135E4,4.2177247E5,2.2187974E3,2.248846E5,1.6840034E5,7.945501E3,1.3303741E3,4.318207E4,5.9056475E3,1.2751806E5,2.3616697E4,3.7445999E3,8.46264E3,1.0416428E1,1.0746217E3,3.4651592E3,9.3229755E2,2.1662275E3,1.506479E3,2.7606643E4,1.9512119E3,1.0697373E4,5.8612E5,1.5296948E3,9.278875E2,1.5741576E4,8.709611E4,1.1863248E4,3.2542363E4],"tree_param":{"num_deleted":"0","num_feature":"25","num_nodes":"63","size_leaf_vector":"1"}},{"base_weights":[5.1601096E-3,-6.9107246E-1,1.0314089E0,-8.391467E-1,-1.1403565E-1,-8.010585E-1,1.1280521E0,-3.9046265E-2,-9.317922E-1,6.207133E-1,-3.296515E-1,1.5789844E-1,-9.0197676E-1,1.2205818E0,8.80686E-1,-1.2288593E0,3.275266E-2,-1.3386153E0,-8.7184626E-1,-8.902038E-1,8.027157E-1,-3.8833076E-1,6.265658E-1,-8.0343384E-1,3.5822234E-1,-3.8221255E-1,-1.0197636E0,1.2268925E0,-3.5927543E-1,-3.269575E-1,9.026022E-1,-1.3533108E-1,-4.870983E-2,2.42288E-2,-5.081728E-2,-4.728956E-2,-1.3453542E-1,-1.0142304E-1,-6.990843E-2,-4.0365487E-2,-1.1445969E-1,1.027232E-1,-4.6803273E-2,-6.313362E-2,-1.676053E-2,1.3146119E-1,2.1601213E-2,-3.0343896E-2,-1.3559091E-1,5.9576806E-2,-5.669524E-2,-1.6790025E-1,-2.7372519E-2,-1.0532874E-1,-1.9104114E-2,7.126654E-2,1.23664476E-1,-9.389411E-2,2.1824013E-2,-1.5443854E-1,8.940559E-2,9.828433E-2,6.0439497E-2],"categories":[],"categories_nodes":[],"categories_segments":[],"categories_sizes":[],"default_left":[0,0,0,0,0,0,0,0,0,0,0,0,0,0,0,0,0,0,0,0,0,0,0,0,0,0,0,0,0,0,0,0,0,0,0,0,0,0,0,0,0,0,0,0,0,0,0,0,0,0,0,0,0,0,0,0,0,0,0,0,0,0,0],"id":7,"left_children":[1,3,5,7,9,11,13,15,17,19,21,23,25,27,29,31,33,35,37,39,41,43,45,47,49,51,53,55,57,59,61,-1,-1,-1,-1,-1,-1,-1,-1,-1,-1,-1,-1,-1,-1,-1,-1,-1,-1,-1,-1,-1,-1,-1,-1,-1,-1,-1,-1,-1,-1,-1,-1],"loss_changes":[1.3152044E6,9.370584E4,1.3176369E5,6.4692188E4,3.5480008E4,3.6073867E3,1.61755625E4,7.737197E3,1.9073875E4,1.3973168E4,9.715475E3,6.839349E2,2.0643027E3,5.1285E3,5.092578E3,4.751631E2,9.681505E3,5.85375E2,1.6768594E4,6.7572314E2,1.2938625E4,8.750068E3,2.8277117E3,1.6877985E2,6.4613293E2,8.76329E2,7.6363086E2,2.5681875E3,6.8551733E2,5.1003423E3,4.5212344E3,0E0,0E0,0E0,0E0,0E0,0E0,0E0,0E0,0E0,0E0,0E0,0E0,0E0,0E0,0E0,0E0,0E0,0E0,0E0,0E0,0E0,0E0,0E0,0E0,0E0,0E0,0E0,0E0,0E0,0E0,0E0,0E0],"parents":[2147483647,0,0,1,1,2,2,3,3,4,4,5,5,6,6,7,7,8,8,9,9,10,10,11,11,12,12,13,13,14,14,15,15,16,16,17,17,18,18,19,19,20,20,21,21,22,22,23,23,24,24,25,25,26,26,27,27,28,28,29,29,30,30],"right_children":[2,4,6,8,10,12,14,16,18,20,22,24,26,28,30,32,34,36,38,40,42,44,46,48,50,52,54,56,58,60,62,-1,-1,-1,-1,-1,-1,-1,-1,-1,-1,-1,-1,-1,-1,-1,-1,-1,-1,-1,-1,-1,-1,-1,-1,-1,-1,-1,-1,-1,-1,-1,-1],"split_conditions":[1.5933347E0,8.34551E-1,-4.882659E-1,-3.7005818E-1,-1.185697E0,-3.7766418E-1,-2.1089664E-1,-1.6149491E0,-1.6149491E0,-8.367488E-2,3.2345466E-2,-3.8992974E-1,-4.1746283E-1,1.7206515E0,-3.720071E-1,2.7674323E-2,6.945255E-2,-4.681135E-1,-1.6806972E-1,-1.1555669E0,6.945255E-2,-8.367488E-2,-2.4838881E-1,-1.0024395E0,6.945255E-2,-1.6149491E0,1.4414904E0,-3.720071E-1,-2.3680231E-1,3.7570742E-1,1.8511061E-1,-1.3533108E-1,-4.870983E-2,2.42288E-2,-5.081728E-2,-4.728956E-2,-1.3453542E-1,-1.0142304E-1,-6.990843E-2,-4.0365487E-2,-1.1445969E-1,1.027232E-1,-4.6803273E-2,-6.313362E-2,-1.676053E-2,1.3146119E-1,2.1601213E-2,-3.0343896E-2,-1.3559091E-1,5.9576806E-2,-5.669524E-2,-1.6790025E-1,-2.7372519E-2,-1.0532874E-1,-1.9104114E-2,7.126654E-2,1.23664476E-1,-9.389411E-2,2.1824013E-2,-1.5443854E-1,8.940559E-2,9.828433E-2,6.0439497E-2],"split_indices":[7,21,8,4,15,5,3,6,6,6,22,6,18,8,8,22,6,10,21,6,6,6,5,6,6,6,21,8,6,6,3,0,0,0,0,0,0,0,0,0,0,0,0,0,0,0,0,0,0,0,0,0,0,0,0,0,0,0,0,0,0,0,0],"split_type":[0,0,0,0,0,0,0,0,0,0,0,0,0,0,0,0,0,0,0,0,0,0,0,0,0,0,0,0,0,0,0,0,0,0,0,0,0,0,0,0,0,0,0,0,0,0,0,0,0,0,0,0,0,0,0,0,0,0,0,0,0,0,0],"sum_hessian":[1.8407115E6,1.0966901E6,7.440213E5,8.7273575E5,2.2395442E5,3.7273043E4,7.067483E5,9.056908E4,7.821667E5,5.0809668E4,1.7314475E5,3.5489783E3,3.3724062E4,5.1434756E5,1.9240073E5,5.1534116E3,8.541567E4,1.0044883E5,6.817178E5,5.462029E3,4.534764E4,1.6313444E5,1.0010318E4,6.114908E2,2.9374875E3,6.2312686E3,2.7492795E4,5.123014E5,2.0461392E3,3.4291892E3,1.8897155E5,4.412298E3,7.411137E2,6.1567254E4,2.3848416E4,7.764011E2,9.967243E4,3.737126E5,3.0800522E5,1.8762075E3,3.5858215E3,3.853878E4,6.808857E3,7.764744E4,8.548699E4,3.7400967E3,6.270221E3,3.2180432E2,2.8968643E2,2.3376372E3,5.998502E2,4.799362E2,5.7513325E3,2.6423625E4,1.0691699E3,9.536366E3,5.0276506E5,1.0208563E3,1.0252828E3,1.716983E3,1.712206E3,1.4890277E5,4.0068785E4],"tree_param":{"num_deleted":"0","num_feature":"25","num_nodes":"63","size_leaf_vector":"1"}},{"base_weights":[3.881988E-3,-6.4960253E-1,9.844616E-1,-7.979144E-1,-1.3875571E-1,-7.398745E-1,1.077245E0,6.845406E-2,-8.746783E-1,5.181234E-1,-3.432469E-1,-2.2585249E-2,-8.648936E-1,1.1685648E0,8.140536E-1,2.3588347E-1,-8.5601974E-1,-1.014722E0,-6.822393E-1,-7.7551955E-1,7.168054E-1,-4.432966E-1,1.6944942E-1,-1.3334439E0,2.7353343E-1,-9.08823E-1,4.7479954E-2,1.1748878E0,-3.3112139E-1,8.9260834E-1,4.9488387E-1,-4.0156428E-2,4.140007E-2,-9.852793E-2,2.1748442E-2,-5.7623167E-2,-1.0820671E-1,1.3639568E-2,-8.281141E-2,1.6598295E-1,-8.203264E-2,9.802924E-2,-5.6183722E-2,-6.541086E-2,-2.4749603E-2,1.19526386E-1,4.2370125E-3,1.2700187E-1,-1.3613749E-1,4.0767677E-2,-6.734692E-2,-5.831469E-2,-1.00657955E-1,-1.3307133E-1,3.4572627E-2,6.4501606E-2,1.1852546E-1,-8.4170856E-2,1.6031392E-2,9.081524E-2,-6.2253844E-2,-1.67699E-3,6.69945E-2],"categories":[],"categories_nodes":[],"categories_segments":[],"categories_sizes":[],"default_left":[0,0,0,0,0,0,0,0,0,0,0,0,0,0,0,0,0,0,0,0,0,0,0,0,0,0,0,0,0,0,0,0,0,0,0,0,0,0,0,0,0,0,0,0,0,0,0,0,0,0,0,0,0,0,0,0,0,0,0,0,0,0,0],"id":8,"left_children":[1,3,5,7,9,11,13,15,17,19,21,23,25,27,29,31,33,35,37,39,41,43,45,47,49,51,53,55,57,59,61,-1,-1,-1,-1,-1,-1,-1,-1,-1,-1,-1,-1,-1,-1,-1,-1,-1,-1,-1,-1,-1,-1,-1,-1,-1,-1,-1,-1,-1,-1,-1,-1],"loss_changes":[1.1309302E6,8.024125E4,1.1292225E5,5.4587406E4,3.2009729E4,3.2318125E3,1.60965625E4,1.0340883E4,2.0319062E4,1.454109E4,9.321719E3,2.0771345E3,1.2301094E3,4.715375E3,4.3253047E3,6.4224526E3,1.4217104E3,1.2886344E4,3.792558E4,8.2329297E2,1.6522877E4,6.276176E3,3.8681235E3,7.343176E1,5.5479236E2,9.3161523E2,5.8034033E2,2.7190625E3,5.2415985E2,3.2613125E3,3.0524736E3,0E0,0E0,0E0,0E0,0E0,0E0,0E0,0E0,0E0,0E0,0E0,0E0,0E0,0E0,0E0,0E0,0E0,0E0,0E0,0E0,0E0,0E0,0E0,0E0,0E0,0E0,0E0,0E0,0E0,0E0,0E0,0E0],"parents":[2147483647,0,0,1,1,2,2,3,3,4,4,5,5,6,6,7,7,8,8,9,9,10,10,11,11,12,12,13,13,14,14,15,15,16,16,17,17,18,18,19,19,20,20,21,21,22,22,23,23,24,24,25,25,26,26,27,27,28,28,29,29,30,30],"right_children":[2,4,6,8,10,12,14,16,18,20,22,24,26,28,30,32,34,36,38,40,42,44,46,48,50,52,54,56,58,60,62,-1,-1,-1,-1,-1,-1,-1,-1,-1,-1,-1,-1,-1,-1,-1,-1,-1,-1,-1,-1,-1,-1,-1,-1,-1,-1,-1,-1,-1,-1,-1,-1],"split_conditions":[1.5933347E0,7.3748267E-1,-4.882659E-1,-1.0319774E0,-9.566821E-1,-3.7352216E-1,-1.9557299E-1,2.2257997E-1,-8.367488E-2,-8.367488E-2,2.5424559E-2,-1.6149491E0,1.5024872E0,1.7206515E0,2.3899576E-1,-3.8992974E-1,1.0143188E0,-4.1971916E-1,6.945255E-2,-5.1759696E-1,6.945255E-2,-8.367488E-2,-3.5227E-1,-3.0982392E0,-3.4820873E-1,-3.8520294E-1,-3.6392182E-1,-3.720071E-1,-2.3680231E-1,1.7206515E0,-1.13966E0,-4.0156428E-2,4.140007E-2,-9.852793E-2,2.1748442E-2,-5.7623167E-2,-1.0820671E-1,1.3639568E-2,-8.281141E-2,1.6598295E-1,-8.203264E-2,9.802924E-2,-5.6183722E-2,-6.541086E-2,-2.4749603E-2,1.19526386E-1,4.2370125E-3,1.2700187E-1,-1.3613749E-1,4.0767677E-2,-6.734692E-2,-5.831469E-2,-1.00657955E-1,-1.3307133E-1,3.4572627E-2,6.4501606E-2,1.1852546E-1,-8.4170856E-2,1.6031392E-2,9.081524E-2,-6.2253844E-2,-1.67699E-3,6.69945E-2],"split_indices":[7,21,8,21,15,5,1,6,6,6,22,6,21,8,1,6,9,18,6,18,6,6,4,22,23,18,17,8,6,8,9,0,0,0,0,0,0,0,0,0,0,0,0,0,0,0,0,0,0,0,0,0,0,0,0,0,0,0,0,0,0,0,0],"split_type":[0,0,0,0,0,0,0,0,0,0,0,0,0,0,0,0,0,0,0,0,0,0,0,0,0,0,0,0,0,0,0,0,0,0,0,0,0,0,0,0,0,0,0,0,0,0,0,0,0,0,0,0,0,0,0,0,0,0,0,0,0,0,0],"sum_hessian":[1.7648882E6,1.0590856E6,7.058026E5,8.20789E5,2.3829653E5,3.603844E4,6.697642E5,6.680612E4,7.5398294E5,5.6571754E4,1.8172478E5,5.3491587E3,3.0689281E4,4.9723478E5,1.7252942E5,5.6562887E4,1.0243235E4,4.3639844E5,3.1758447E5,7.5313447E3,4.904041E4,1.5205272E5,2.9672064E4,9.850472E2,4.3641113E3,2.9279521E4,1.40976E3,4.9514738E5,2.08741E3,1.3845161E5,3.407781E4,1.2352909E4,4.4209977E4,9.142481E3,1.1007545E3,5.810181E4,3.7829662E5,4.803225E4,2.6955222E5,1.3541115E2,7.3959336E3,4.06616E4,8.378811E3,7.321848E4,7.883424E4,3.2697175E3,2.6402348E4,9.98381E0,9.750634E2,3.8231326E3,5.4097876E2,6.7612783E3,2.2518244E4,2.5018692E2,1.1595731E3,9.502834E3,4.8564456E5,1.02340686E3,1.064003E3,1.3704605E5,1.4055667E3,8.687532E3,2.5390275E4],"tree_param":{"num_deleted":"0","num_feature":"25","num_nodes":"63","size_leaf_vector":"1"}},{"base_weights":[7.273786E-4,-6.0674566E-1,9.383786E-1,-7.639062E-1,-1.6574144E-1,-7.198325E-1,1.0293242E0,-3.3648536E-2,-8.5912067E-1,4.364761E-1,-3.5010806E-1,-9.705927E-2,-8.375597E-1,1.1306916E0,7.711881E-1,2.3843203E-1,-3.0301094E-1,-1.248535E0,-8.013095E-1,-6.4102995E-1,6.908009E-1,-4.2366895E-1,3.267064E-1,-1.2977533E0,1.98044E-1,-4.9336088E-1,-9.456266E-1,1.1369693E0,-3.3983338E-1,-5.267511E-1,7.9462874E-1,3.881591E-2,-6.3602E-2,-1.2746091E-1,-2.0243349E-2,-3.4321122E-2,-1.2556969E-1,-8.125206E-2,1.0813484E-1,-8.029733E-2,2.5966624E-2,9.214064E-2,-6.885038E-2,-1.1271056E-1,-3.685438E-2,1.1535428E-1,1.36499135E-2,1.081466E-1,-1.3215004E-1,3.5871085E-2,-3.8537763E-2,-6.317875E-2,1.8161887E-2,-9.636999E-2,6.947074E-2,6.1300676E-2,1.1479577E-1,-7.6790236E-2,8.509478E-3,-1.5471292E-1,6.7222774E-2,8.8089034E-2,5.1122475E-2],"categories":[],"categories_nodes":[],"categories_segments":[],"categories_sizes":[],"default_left":[0,0,0,0,0,0,0,0,0,0,0,0,0,0,0,0,0,0,0,0,0,0,0,0,0,0,0,0,0,0,0,0,0,0,0,0,0,0,0,0,0,0,0,0,0,0,0,0,0,0,0,0,0,0,0,0,0,0,0,0,0,0,0],"id":9,"left_children":[1,3,5,7,9,11,13,15,17,19,21,23,25,27,29,31,33,35,37,39,41,43,45,47,49,51,53,55,57,59,61,-1,-1,-1,-1,-1,-1,-1,-1,-1,-1,-1,-1,-1,-1,-1,-1,-1,-1,-1,-1,-1,-1,-1,-1,-1,-1,-1,-1,-1,-1,-1,-1],"loss_changes":[9.6177775E5,7.101822E4,1.00114E5,5.252728E4,2.9891445E4,2.5305996E3,1.6466688E4,6.3863306E3,1.50444375E4,1.729293E4,1.0262207E4,1.9450701E3,1.0793125E3,4.172E3,5.3993594E3,5.676193E3,4.2788037E3,5.596875E2,1.228325E4,1.7579253E3,1.623942E4,7.20875E3,3.177781E3,6.261792E1,4.1320984E2,6.484105E2,6.555996E2,2.5899375E3,3.4961255E2,3.8530002E3,4.2607734E3,0E0,0E0,0E0,0E0,0E0,0E0,0E0,0E0,0E0,0E0,0E0,0E0,0E0,0E0,0E0,0E0,0E0,0E0,0E0,0E0,0E0,0E0,0E0,0E0,0E0,0E0,0E0,0E0,0E0,0E0,0E0,0E0],"parents":[2147483647,0,0,1,1,2,2,3,3,4,4,5,5,6,6,7,7,8,8,9,9,10,10,11,11,12,12,13,13,14,14,15,15,16,16,17,17,18,18,19,19,20,20,21,21,22,22,23,23,24,24,25,25,26,26,27,27,28,28,29,29,30,30],"right_children":[2,4,6,8,10,12,14,16,18,20,22,24,26,28,30,32,34,36,38,40,42,44,46,48,50,52,54,56,58,60,62,-1,-1,-1,-1,-1,-1,-1,-1,-1,-1,-1,-1,-1,-1,-1,-1,-1,-1,-1,-1,-1,-1,-1,-1,-1,-1,-1,-1,-1,-1,-1,-1],"split_conditions":[1.5933347E0,5.760972E-1,-4.882659E-1,-3.7005818E-1,-8.0755514E-1,-3.7267682E-1,-2.1089664E-1,-4.9210298E-1,-1.6149491E0,-1.7526428E-1,2.9158607E-2,-1.6149491E0,-3.8520294E-1,1.7206515E0,-3.720071E-1,2.2257997E-1,-1.4618217E0,-4.681135E-1,4.3661635E-2,1.4638042E0,4.142687E-1,-1.4618217E0,-3.3567768E-1,-3.0982392E0,4.896594E-2,-3.3099917E-1,2.8766692E0,-3.720071E-1,-2.3680231E-1,3.7570742E-1,1.6439326E-1,3.881591E-2,-6.3602E-2,-1.2746091E-1,-2.0243349E-2,-3.4321122E-2,-1.2556969E-1,-8.125206E-2,1.0813484E-1,-8.029733E-2,2.5966624E-2,9.214064E-2,-6.885038E-2,-1.1271056E-1,-3.685438E-2,1.1535428E-1,1.36499135E-2,1.081466E-1,-1.3215004E-1,3.5871085E-2,-3.8537763E-2,-6.317875E-2,1.8161887E-2,-9.636999E-2,6.947074E-2,6.1300676E-2,1.1479577E-1,-7.6790236E-2,8.509478E-3,-1.5471292E-1,6.7222774E-2,8.8089034E-2,5.1122475E-2],"split_indices":[7,21,8,4,15,5,3,23,6,7,22,6,18,8,8,6,6,10,22,16,7,6,5,22,16,23,17,8,6,6,3,0,0,0,0,0,0,0,0,0,0,0,0,0,0,0,0,0,0,0,0,0,0,0,0,0,0,0,0,0,0,0,0],"split_type":[0,0,0,0,0,0,0,0,0,0,0,0,0,0,0,0,0,0,0,0,0,0,0,0,0,0,0,0,0,0,0,0,0,0,0,0,0,0,0,0,0,0,0,0,0,0,0,0,0,0,0,0,0,0,0,0,0,0,0,0,0,0,0],"sum_hessian":[1.6885188E6,1.0246697E6,6.6384906E5,7.554496E5,2.6922003E5,3.451579E4,6.293333E5,8.713788E4,6.6831175E5,6.310187E4,2.0611814E5,5.4877256E3,2.9028064E4,4.518809E5,1.7745238E5,4.335027E4,4.378761E4,8.6387516E4,5.8192425E5,1.2049566E4,5.1052305E4,1.8591228E5,2.020586E4,1.0819937E3,4.405732E3,6.9374575E3,2.2090607E4,4.4996025E5,1.9206599E3,3.1475398E3,1.7430483E5,3.701327E4,6.337001E3,4.1064844E3,3.9681125E4,6.7841003E2,8.570911E4,5.7848006E5,3.4442183E3,1.0213338E4,1.8362289E3,4.3739797E4,7.312507E3,1.3508949E4,1.7240334E5,3.7779482E3,1.642791E4,1.0252567E1,1.0717411E3,3.454729E3,9.510028E2,5.7568843E3,1.180573E3,2.1850273E4,2.4033434E2,9.243825E3,4.4071644E5,9.5639185E2,9.6426807E2,1.7002607E3,1.4472789E3,1.3362914E5,4.0675695E4],"tree_param":{"num_deleted":"0","num_feature":"25","num_nodes":"63","size_leaf_vector":"1"}},{"base_weights":[2.8193938E-3,-5.621874E-1,8.9854366E-1,-6.55786E-1,1.1952888E-1,-6.603481E-1,9.86266E-1,-2.408693E-2,-7.2889686E-1,7.8165233E-1,-4.9288247E-2,-1.5720611E-3,-7.829781E-1,1.0971888E0,7.3631614E-1,-5.1223177E-1,1.2159009E-1,-8.947096E-1,-4.985572E-1,-6.515962E-1,9.8256946E-1,8.4202635E-1,-1.3888857E-1,-1.279227E0,2.4227421E-1,-4.4681382E-1,-8.933E-1,1.1034659E0,-2.992416E-1,8.358066E-1,4.962787E-1,-1.0202775E-1,-2.5033344E-2,3.8935952E-2,-4.0114228E-2,-4.9426343E-2,-9.5845915E-2,-7.378364E-2,-2.4181997E-2,-7.190169E-2,6.2315084E-2,1.12626135E-1,-2.8227938E-2,2.692373E-2,1.0405866E-1,-3.9315213E-2,1.3532563E-2,-1.4415736E-1,-1.2655957E-1,-8.776671E-2,3.1569567E-2,-1.3078004E-2,-7.782717E-2,-9.527814E-2,-3.5679024E-2,5.9081804E-2,1.1148479E-1,-7.690823E-2,1.3834337E-2,8.49676E-2,-4.8267234E-2,2.3631325E-2,7.373585E-2],"categories":[],"categories_nodes":[],"categories_segments":[],"categories_sizes":[],"default_left":[0,0,0,0,0,0,0,0,0,0,0,0,0,0,0,0,0,0,0,0,0,0,0,0,0,0,0,0,0,0,0,0,0,0,0,0,0,0,0,0,0,0,0,0,0,0,0,0,0,0,0,0,0,0,0,0,0,0,0,0,0,0,0],"id":10,"left_children":[1,3,5,7,9,11,13,15,17,19,21,23,25,27,29,31,33,35,37,39,41,43,45,47,49,51,53,55,57,59,61,-1,-1,-1,-1,-1,-1,-1,-1,-1,-1,-1,-1,-1,-1,-1,-1,-1,-1,-1,-1,-1,-1,-1,-1,-1,-1,-1,-1,-1,-1,-1,-1],"loss_changes":[8.191849E5,6.3333188E4,8.5618375E4,4.0306594E4,1.3393962E4,2.694624E3,1.6432875E4,6.437878E3,2.9874594E4,7.010968E3,7.6255786E3,1.631469E3,1.0424883E3,3.5989375E3,4.3506562E3,2.7683574E3,9.759613E3,1.16099375E4,2.0112688E4,2.5773926E2,3.8809668E3,9.91688E2,6.0493315E3,3.2958984E-2,3.6186096E2,7.279546E2,6.752832E2,2.384125E3,3.7797565E2,2.3557969E3,3.3459219E3,0E0,0E0,0E0,0E0,0E0,0E0,0E0,0E0,0E0,0E0,0E0,0E0,0E0,0E0,0E0,0E0,0E0,0E0,0E0,0E0,0E0,0E0,0E0,0E0,0E0,0E0,0E0,0E0,0E0,0E0,0E0,0E0],"parents":[2147483647,0,0,1,1,2,2,3,3,4,4,5,5,6,6,7,7,8,8,9,9,10,10,11,11,12,12,13,13,14,14,15,15,16,16,17,17,18,18,19,19,20,20,21,21,22,22,23,23,24,24,25,25,26,26,27,27,28,28,29,29,30,30],"right_children":[2,4,6,8,10,12,14,16,18,20,22,24,26,28,30,32,34,36,38,40,42,44,46,48,50,52,54,56,58,60,62,-1,-1,-1,-1,-1,-1,-1,-1,-1,-1,-1,-1,-1,-1,-1,-1,-1,-1,-1,-1,-1,-1,-1,-1,-1,-1,-1,-1,-1,-1,-1,-1],"split_conditions":[1.5933347E0,1.5700473E0,-4.882659E-1,-3.7005818E-1,-1.2410712E-2,-3.7352216E-1,-2.2651957E-1,-3.8992974E-1,-1.5110806E-2,-8.367488E-2,-3.6691827E-1,-1.6149491E0,-3.8520294E-1,1.7206515E0,7.577406E-2,-1.1470766E0,6.945255E-2,-4.1100827E-1,-8.367488E-2,-1.0946279E0,6.945255E-2,2.840526E0,-8.77962E-2,-4.3663654E-1,-4.3891232E-2,-1.0024395E0,5.288348E-1,-3.720071E-1,-2.3680231E-1,1.7206515E0,6.945255E-2,-1.0202775E-1,-2.5033344E-2,3.8935952E-2,-4.0114228E-2,-4.9426343E-2,-9.5845915E-2,-7.378364E-2,-2.4181997E-2,-7.190169E-2,6.2315084E-2,1.12626135E-1,-2.8227938E-2,2.692373E-2,1.0405866E-1,-3.9315213E-2,1.3532563E-2,-1.4415736E-1,-1.2655957E-1,-8.776671E-2,3.1569567E-2,-1.3078004E-2,-7.782717E-2,-9.527814E-2,-3.5679024E-2,5.9081804E-2,1.1148479E-1,-7.690823E-2,1.3834337E-2,8.49676E-2,-4.8267234E-2,2.3631325E-2,7.373585E-2],"split_indices":[7,21,8,4,22,5,3,6,21,6,4,6,18,8,0,9,6,18,6,17,6,21,16,18,14,6,6,8,6,8,6,0,0,0,0,0,0,0,0,0,0,0,0,0,0,0,0,0,0,0,0,0,0,0,0,0,0,0,0,0,0,0,0],"split_type":[0,0,0,0,0,0,0,0,0,0,0,0,0,0,0,0,0,0,0,0,0,0,0,0,0,0,0,0,0,0,0,0,0,0,0,0,0,0,0,0,0,0,0,0,0,0,0,0,0,0,0,0,0,0,0,0,0,0,0,0,0,0,0],"sum_hessian":[1.6186516E6,9.925618E5,6.2608975E5,8.7273644E5,1.1982534E5,3.33542E4,5.9273556E5,9.0530305E4,7.822061E5,2.4343447E4,9.54819E4,5.2346025E3,2.8119596E4,4.1054178E5,1.821938E5,2.0806822E4,6.9723484E4,4.548059E5,3.2740022E5,2.9926985E3,2.135075E4,8.7208955E3,8.6761E4,8.382529E2,4.3963496E3,6.9492954E3,2.11703E4,4.0870484E5,1.836928E3,1.2880452E5,5.3389273E4,7.0765054E3,1.3730317E4,4.6105973E4,2.3617508E4,6.2461215E4,3.9234472E5,1.6946081E5,1.5793942E5,2.8427812E3,1.4991714E2,1.9172758E4,2.1779922E3,2.2455332E3,6.475362E3,4.501794E4,4.1743062E4,5.681694E1,7.81436E2,2.698107E2,4.1265386E3,3.5581318E3,3.3911633E3,1.9056756E4,2.1135457E3,8.878301E3,3.9982653E5,8.8545056E2,9.514774E2,1.2746406E5,1.3404623E3,2.5689398E4,2.7699875E4],"tree_param":{"num_deleted":"0","num_feature":"25","num_nodes":"63","size_leaf_vector":"1"}},{"base_weights":[2.3661847E-3,-5.2673113E-1,8.614039E-1,-6.7963845E-1,-1.4244574E-1,-6.092915E-1,9.460705E-1,-2.6857356E-2,-7.7249426E-1,-5.0854117E-1,1.0949424E-1,-4.9954433E-2,-7.2291553E-1,1.0642458E0,6.9542634E-1,-1.0538787E0,2.8016975E-2,-1.1827252E0,-7.133432E-1,-3.0103847E-1,-8.333409E-1,5.05803E-1,-3.8413715E-1,-1.2247144E0,1.9600299E-1,-3.8639253E-1,-8.3627295E-1,1.0705858E0,-3.4562013E-1,-4.2564785E-1,7.179447E-1,-1.15803376E-1,3.90293E-2,1.8783074E-2,-3.9112348E-2,-2.5130896E-2,-1.1903131E-1,-4.2999294E-2,-7.918887E-2,-1.0428434E-1,-8.854598E-3,-9.0399496E-2,3.116032E-3,7.700608E-2,-3.1724032E-2,-8.8888094E-2,-9.609309E-3,1.0453943E-1,-1.2514578E-1,3.249011E-2,-7.483099E-2,-1.4376879E-1,-2.862044E-2,-9.654885E-2,-6.1123908E-2,5.3391892E-2,1.0827356E-1,-4.8499096E-2,6.8727754E-2,-1.355043E-1,6.543417E-2,7.993366E-2,4.346792E-2],"categories":[],"categories_nodes":[],"categories_segments":[],"categories_sizes":[],"default_left":[0,0,0,0,0,0,0,0,0,0,0,0,0,0,0,0,0,0,0,0,0,0,0,0,0,0,0,0,0,0,0,0,0,0,0,0,0,0,0,0,0,0,0,0,0,0,0,0,0,0,0,0,0,0,0,0,0,0,0,0,0,0,0],"id":11,"left_children":[1,3,5,7,9,11,13,15,17,19,21,23,25,27,29,31,33,35,37,39,41,43,45,47,49,51,53,55,57,59,61,-1,-1,-1,-1,-1,-1,-1,-1,-1,-1,-1,-1,-1,-1,-1,-1,-1,-1,-1,-1,-1,-1,-1,-1,-1,-1,-1,-1,-1,-1,-1,-1],"loss_changes":[7.0526044E5,5.642403E4,7.364509E4,4.163728E4,2.5210115E4,2.0461162E3,1.6563875E4,4.821077E3,1.4591875E4,7.509166E3,3.1674133E4,1.5712156E3,1.0204795E3,3.3974688E3,4.5239297E3,6.5309863E2,5.439658E3,5.353047E2,1.16971875E4,1.0716766E4,2.6529824E3,1.9532844E4,1.0482582E4,5.8461304E1,5.475708E2,7.099682E2,5.8143066E2,2.4663438E3,2.4536676E2,3.54313E3,4.0496562E3,0E0,0E0,0E0,0E0,0E0,0E0,0E0,0E0,0E0,0E0,0E0,0E0,0E0,0E0,0E0,0E0,0E0,0E0,0E0,0E0,0E0,0E0,0E0,0E0,0E0,0E0,0E0,0E0,0E0,0E0,0E0,0E0],"parents":[2147483647,0,0,1,1,2,2,3,3,4,4,5,5,6,6,7,7,8,8,9,9,10,10,11,11,12,12,13,13,14,14,15,15,16,16,17,17,18,18,19,19,20,20,21,21,22,22,23,23,24,24,25,25,26,26,27,27,28,28,29,29,30,30],"right_children":[2,4,6,8,10,12,14,16,18,20,22,24,26,28,30,32,34,36,38,40,42,44,46,48,50,52,54,56,58,60,62,-1,-1,-1,-1,-1,-1,-1,-1,-1,-1,-1,-1,-1,-1,-1,-1,-1,-1,-1,-1,-1,-1,-1,-1,-1,-1,-1,-1,-1,-1,-1,-1],"split_conditions":[1.5933347E0,5.2415407E-1,-4.882659E-1,-3.7005818E-1,-8.367488E-2,-3.7267682E-1,-2.3127437E-1,-1.6149491E0,-1.6149491E0,-1.0024395E0,6.945255E-2,-1.6149491E0,-3.8520294E-1,1.7206515E0,-3.720071E-1,2.5783393E0,6.945255E-2,-4.6731642E-1,-3.775677E-1,-1.4618217E0,3.053382E-2,4.142687E-1,3.7570742E-1,-3.0982392E0,-3.4820873E-1,-1.6149491E0,4.4640977E-4,-3.720071E-1,1.0135627E0,3.7570742E-1,1.6439326E-1,-1.15803376E-1,3.90293E-2,1.8783074E-2,-3.9112348E-2,-2.5130896E-2,-1.1903131E-1,-4.2999294E-2,-7.918887E-2,-1.0428434E-1,-8.854598E-3,-9.0399496E-2,3.116032E-3,7.700608E-2,-3.1724032E-2,-8.8888094E-2,-9.609309E-3,1.0453943E-1,-1.2514578E-1,3.249011E-2,-7.483099E-2,-1.4376879E-1,-2.862044E-2,-9.654885E-2,-6.1123908E-2,5.3391892E-2,1.0827356E-1,-4.8499096E-2,6.8727754E-2,-1.355043E-1,6.543417E-2,7.993366E-2,4.346792E-2],"split_indices":[7,21,8,4,6,5,3,6,6,6,6,6,18,8,8,17,6,3,18,6,22,7,6,22,23,6,21,8,9,6,3,0,0,0,0,0,0,0,0,0,0,0,0,0,0,0,0,0,0,0,0,0,0,0,0,0,0,0,0,0,0,0,0],"split_type":[0,0,0,0,0,0,0,0,0,0,0,0,0,0,0,0,0,0,0,0,0,0,0,0,0,0,0,0,0,0,0,0,0,0,0,0,0,0,0,0,0,0,0,0,0,0,0,0,0,0,0,0,0,0,0,0,0,0,0,0,0,0,0],"sum_hessian":[1.5516765E6,9.6024444E5,5.91432E5,6.8691844E5,2.7332597E5,3.2194443E4,5.5923756E5,8.5543625E4,6.013748E5,1.1141996E5,1.61906E5,5.4360127E3,2.6758432E4,3.8004728E5,1.791903E5,4.3378955E3,8.1205734E4,7.578232E4,5.255925E5,6.798729E4,4.343267E4,8.980589E4,7.21001E4,9.404044E2,4.495608E3,6.743497E3,2.0014934E4,3.7834612E5,1.7011434E3,3.5280547E3,1.7566225E5,4.0462725E3,2.916231E2,5.8790207E4,2.2415523E4,6.1265717E2,7.5169664E4,1.1407548E5,4.1151703E5,1.5137795E4,5.2849492E4,4.0151145E4,3.2815269E3,6.797951E4,2.1826387E4,2.6195414E4,4.5904688E4,1.050612E1,9.298983E2,3.95624E3,5.393682E2,5.8557574E2,6.1579214E3,1.2712225E4,7.30271E3,8.37682E3,3.699693E5,1.499362E3,2.0178128E2,1.8960964E3,1.6319584E3,1.3645283E5,3.9209418E4],"tree_param":{"num_deleted":"0","num_feature":"25","num_nodes":"63","size_leaf_vector":"1"}},{"base_weights":[2.7923808E-3,-4.9029E-1,8.253607E-1,-7.1674114E-1,-2.52959E-1,-5.7600045E-1,9.078522E-1,-1.1278455E0,-6.2807214E-1,4.1332477E-1,-5.7354075E-1,-4.0508587E-2,-6.8668336E-1,1.0029575E0,5.771898E-1,-3.392521E-1,-1.1368033E0,-2.9037914E-1,-7.9256845E-1,9.076013E-1,1.10483676E-1,-7.4190605E-1,-1.7883308E-1,-1.1941776E0,1.8489844E-1,-7.3808175E-1,2.6692343E-1,1.0103045E0,-3.555515E-1,6.417493E-2,6.534854E-1,9.3877144E-2,-1.5090914E-1,-7.794676E-2,-1.154382E-1,-7.7774994E-2,-1.65262E-2,-1.4047456E-2,-8.833735E-2,1.08220994E-1,-4.8813548E-2,6.1565556E-2,-1.4722136E-2,-9.972277E-3,-7.858473E-2,3.4385566E-2,-4.1552972E-2,1.08552754E-1,-1.221961E-1,3.044933E-2,-5.6032956E-2,-4.3067377E-2,-8.53835E-2,-1.1766428E-1,5.396065E-2,1.0816524E-1,8.9911334E-2,-7.6292776E-2,5.4820726E-4,2.5936684E-2,-5.861174E-2,-1.3192532E-2,6.951554E-2],"categories":[],"categories_nodes":[],"categories_segments":[],"categories_sizes":[],"default_left":[0,0,0,0,0,0,0,0,0,0,0,0,0,0,0,0,0,0,0,0,0,0,0,0,0,0,0,0,0,0,0,0,0,0,0,0,0,0,0,0,0,0,0,0,0,0,0,0,0,0,0,0,0,0,0,0,0,0,0,0,0,0,0],"id":12,"left_children":[1,3,5,7,9,11,13,15,17,19,21,23,25,27,29,31,33,35,37,39,41,43,45,47,49,51,53,55,57,59,61,-1,-1,-1,-1,-1,-1,-1,-1,-1,-1,-1,-1,-1,-1,-1,-1,-1,-1,-1,-1,-1,-1,-1,-1,-1,-1,-1,-1,-1,-1,-1,-1],"loss_changes":[6.0316406E5,4.9969234E4,6.4429594E4,1.734289E4,9.696978E4,1.8364385E3,1.655225E4,5.958906E2,2.1740547E4,2.2075104E4,2.0368781E4,1.3806544E3,1.2587461E3,4.0804062E3,4.6020195E3,1.4210037E3,5.233906E2,7.8173613E3,1.5583578E4,1.3655172E4,1.1905242E4,6.062828E3,1.1338988E4,5.6290405E1,3.9603485E2,8.6660645E2,5.1784906E2,3.2245938E3,3.2351593E2,1.9324797E3,3.3499688E3,0E0,0E0,0E0,0E0,0E0,0E0,0E0,0E0,0E0,0E0,0E0,0E0,0E0,0E0,0E0,0E0,0E0,0E0,0E0,0E0,0E0,0E0,0E0,0E0,0E0,0E0,0E0,0E0,0E0,0E0,0E0,0E0],"parents":[2147483647,0,0,1,1,2,2,3,3,4,4,5,5,6,6,7,7,8,8,9,9,10,10,11,11,12,12,13,13,14,14,15,15,16,16,17,17,18,18,19,19,20,20,21,21,22,22,23,23,24,24,25,25,26,26,27,27,28,28,29,29,30,30],"right_children":[2,4,6,8,10,12,14,16,18,20,22,24,26,28,30,32,34,36,38,40,42,44,46,48,50,52,54,56,58,60,62,-1,-1,-1,-1,-1,-1,-1,-1,-1,-1,-1,-1,-1,-1,-1,-1,-1,-1,-1,-1,-1,-1,-1,-1,-1,-1,-1,-1,-1,-1,-1,-1],"split_conditions":[1.5933347E0,-8.367488E-2,-4.882659E-1,-1.6149491E0,6.945255E-2,-3.7267682E-1,-1.4170907E-1,-4.9210298E-1,-1.0024395E0,-3.426651E-1,5.288348E-1,-1.6149491E0,1.5024872E0,1.7206515E0,-8.49312E-1,-5.0309014E-1,-1.1499857E0,-1.4618217E0,-3.7267682E-1,4.142687E-1,-3.4137708E-1,-4.343701E-1,-7.647973E-1,-3.0982392E0,6.945255E-2,-1.0024395E0,-3.6392182E-1,-3.3520082E-1,-2.3680231E-1,1.0739158E-1,-2.557483E-1,9.3877144E-2,-1.5090914E-1,-7.794676E-2,-1.154382E-1,-7.7774994E-2,-1.65262E-2,-1.4047456E-2,-8.833735E-2,1.08220994E-1,-4.8813548E-2,6.1565556E-2,-1.4722136E-2,-9.972277E-3,-7.858473E-2,3.4385566E-2,-4.1552972E-2,1.08552754E-1,-1.221961E-1,3.044933E-2,-5.6032956E-2,-4.3067377E-2,-8.53835E-2,-1.1766428E-1,5.396065E-2,1.0816524E-1,8.9911334E-2,-7.6292776E-2,5.4820726E-4,2.5936684E-2,-5.861174E-2,-1.3192532E-2,6.951554E-2],"split_indices":[7,6,8,6,6,5,1,23,6,15,6,6,21,8,6,24,9,6,5,7,5,18,7,22,6,6,17,3,6,0,8,0,0,0,0,0,0,0,0,0,0,0,0,0,0,0,0,0,0,0,0,0,0,0,0,0,0,0,0,0,0,0,0],"split_type":[0,0,0,0,0,0,0,0,0,0,0,0,0,0,0,0,0,0,0,0,0,0,0,0,0,0,0,0,0,0,0,0,0,0,0,0,0,0,0,0,0,0,0,0,0,0,0,0,0,0,0,0,0,0,0,0,0,0,0,0,0,0,0],"sum_hessian":[1.4871111E6,9.2976875E5,5.5734244E5,4.7578903E5,4.5397972E5,3.0983855E4,5.2635856E5,8.441163E4,3.9137738E5,1.4747452E5,3.0650522E5,5.3074395E3,2.5676416E4,4.087823E5,1.17576234E5,9.4850433E2,8.346313E4,1.2819986E5,2.6317753E5,5.602779E4,9.144672E4,2.1485598E5,9.164922E4,8.667871E2,4.4406523E3,2.4363477E4,1.3129398E3,4.0658372E5,2.1986152E3,1.5222352E4,1.0235388E5,4.533868E2,4.9511752E2,3.915499E3,7.954763E4,2.6187207E4,1.0201265E5,3.216866E4,2.3100888E5,4.979819E4,6.229598E3,3.089086E4,6.055586E4,1.3760173E4,2.0109581E5,2.8566463E4,6.308275E4,9.978176E0,8.5680896E2,3.8270718E3,6.135805E2,6.6657754E3,1.76977E4,2.080773E2,1.1048625E3,2.4765964E5,1.5892406E5,1.0324855E3,1.1661296E3,1.170852E4,3.5138313E3,5.156683E3,9.7197195E4],"tree_param":{"num_deleted":"0","num_feature":"25","num_nodes":"63","size_leaf_vector":"1"}},{"base_weights":[4.323427E-3,-4.5464262E-1,7.913653E-1,-6.747262E-1,-2.2836724E-1,-3.3049485E-1,8.871519E-1,-1.0982573E0,-5.8690786E-1,3.8360223E-1,-5.275232E-1,-6.438783E-1,4.3165663E-1,9.7956353E-1,5.3695494E-1,-6.231761E-1,-1.1121118E0,-2.687812E-1,-7.4640626E-1,5.9743536E-1,-2.2057398E-1,-8.1387377E-1,-3.1633183E-1,-1.4443649E0,-5.308035E-1,-3.6655122E-1,1.0041748E0,9.87669E-1,-4.022126E-1,3.4261486E-1,7.5047857E-1,5.4216124E-2,-9.3125656E-2,-1.11987434E-1,-3.2575242E-2,-3.7712064E-2,2.668721E-2,1.7437356E-2,-8.1197165E-2,-6.727147E-2,7.389113E-2,-6.657814E-2,-3.39804E-3,4.5324426E-2,-8.666044E-2,-7.4908376E-2,-1.7931368E-2,-1.2397849E-1,-2.888378E-1,2.0663572E-2,-8.596041E-2,-5.2467413E-2,5.3621095E-2,1.2465807E-1,-2.8191227E-1,1.0556858E-1,8.566143E-2,-8.763655E-2,-1.6258139E-3,4.4736248E-2,-1.2095152E-2,8.2637995E-2,2.7027056E-2],"categories":[],"categories_nodes":[],"categories_segments":[],"categories_sizes":[],"default_left":[0,0,0,0,0,0,0,0,0,0,0,0,0,0,0,0,0,0,0,0,0,0,0,0,0,0,0,0,0,0,0,0,0,0,0,0,0,0,0,0,0,0,0,0,0,0,0,0,0,0,0,0,0,0,0,0,0,0,0,0,0,0,0],"id":13,"left_children":[1,3,5,7,9,11,13,15,17,19,21,23,25,27,29,31,33,35,37,39,41,43,45,47,49,51,53,55,57,59,61,-1,-1,-1,-1,-1,-1,-1,-1,-1,-1,-1,-1,-1,-1,-1,-1,-1,-1,-1,-1,-1,-1,-1,-1,-1,-1,-1,-1,-1,-1,-1,-1],"loss_changes":[5.1530847E5,4.4873438E4,5.6466906E4,1.6989172E4,8.1339086E4,9.873452E3,1.56671875E4,5.1564844E2,1.9197312E4,1.8846623E4,1.8046422E4,2.6506748E3,5.504868E3,4.2905625E3,4.1943457E3,7.9937836E2,4.6490625E2,7.332287E3,1.52136875E4,1.9361875E4,3.1679106E3,8.46382E3,1.0183727E4,1.067334E3,6.2241006E3,7.1854285E2,6.504449E3,3.3936875E3,4.0891904E2,2.5697656E3,1.7552734E3,0E0,0E0,0E0,0E0,0E0,0E0,0E0,0E0,0E0,0E0,0E0,0E0,0E0,0E0,0E0,0E0,0E0,0E0,0E0,0E0,0E0,0E0,0E0,0E0,0E0,0E0,0E0,0E0,0E0,0E0,0E0,0E0],"parents":[2147483647,0,0,1,1,2,2,3,3,4,4,5,5,6,6,7,7,8,8,9,9,10,10,11,11,12,12,13,13,14,14,15,15,16,16,17,17,18,18,19,19,20,20,21,21,22,22,23,23,24,24,25,25,26,26,27,27,28,28,29,29,30,30],"right_children":[2,4,6,8,10,12,14,16,18,20,22,24,26,28,30,32,34,36,38,40,42,44,46,48,50,52,54,56,58,60,62,-1,-1,-1,-1,-1,-1,-1,-1,-1,-1,-1,-1,-1,-1,-1,-1,-1,-1,-1,-1,-1,-1,-1,-1,-1,-1,-1,-1,-1,-1,-1,-1],"split_conditions":[1.5933347E0,-8.367488E-2,-3.720071E-1,-1.6149491E0,6.945255E-2,3.7570742E-1,-1.1817796E-1,-4.4125172E-1,-1.0024395E0,4.142687E-1,3.7570742E-1,-1.6149491E0,-4.882659E-1,1.7206515E0,6.945255E-2,-4.7003078E-1,8.8715094E-1,1.295297E0,-4.9210298E-1,-1.0595638E0,5.0189337E-3,-5.043481E-1,-5.169322E-1,-4.882659E-1,-1.0024395E0,1.982801E-1,5.288348E-1,-3.1244567E-1,-2.3680231E-1,3.6724105E-1,5.288348E-1,5.4216124E-2,-9.3125656E-2,-1.11987434E-1,-3.2575242E-2,-3.7712064E-2,2.668721E-2,1.7437356E-2,-8.1197165E-2,-6.727147E-2,7.389113E-2,-6.657814E-2,-3.39804E-3,4.5324426E-2,-8.666044E-2,-7.4908376E-2,-1.7931368E-2,-1.2397849E-1,-2.888378E-1,2.0663572E-2,-8.596041E-2,-5.2467413E-2,5.3621095E-2,1.2465807E-1,-2.8191227E-1,1.0556858E-1,8.566143E-2,-8.763655E-2,-1.6258139E-3,4.4736248E-2,-1.2095152E-2,8.2637995E-2,2.7027056E-2],"split_indices":[7,6,8,6,6,6,3,18,6,7,6,6,8,8,6,7,14,17,23,7,15,23,21,8,6,21,6,3,6,2,6,0,0,0,0,0,0,0,0,0,0,0,0,0,0,0,0,0,0,0,0,0,0,0,0,0,0,0,0,0,0,0,0],"split_type":[0,0,0,0,0,0,0,0,0,0,0,0,0,0,0,0,0,0,0,0,0,0,0,0,0,0,0,0,0,0,0,0,0,0,0,0,0,0,0,0,0,0,0,0,0,0,0,0,0,0,0,0,0,0,0,0,0,0,0,0,0,0,0],"sum_hessian":[1.426554E6,9.0108425E5,5.2546975E5,4.5679097E5,4.442933E5,4.133605E4,4.8413372E5,7.8446555E4,3.783444E5,1.4587773E5,2.9841556E5,2.929189E4,1.2044161E4,3.8305075E5,1.0108298E5,2.224165E3,7.622239E4,1.2634546E5,2.5199895E5,1.0774433E5,3.813341E4,1.2666711E5,1.7174845E5,3.6241047E3,2.5667787E4,5.0306963E3,7.0134644E3,3.8081716E5,2.2335908E3,5.292004E4,4.8162938E4,4.648971E2,1.7592678E3,7.54769E4,7.4549365E2,1.050905E5,2.1254955E4,1.6751025E4,2.3524792E5,1.0797977E4,9.694635E4,1.126141E4,2.6871998E4,5.060296E3,1.2160681E5,4.130095E4,1.3044751E5,3.176004E3,4.4810095E2,7.9153906E3,1.7752395E4,4.281237E3,7.494595E2,6.5959404E3,4.17524E2,2.5069862E5,1.3011852E5,1.0017051E3,1.2318857E3,4.3166223E4,9.753818E3,4.158873E4,6.5742095E3],"tree_param":{"num_deleted":"0","num_feature":"25","num_nodes":"63","size_leaf_vector":"1"}},{"base_weights":[3.3249038E-3,-4.2390242E-1,7.5702137E-1,-5.622726E-1,-9.5251255E-2,-3.2737985E-1,8.5203063E-1,-1.4953253E-2,-6.473047E-1,-3.7928122E-1,9.5197804E-2,-6.350821E-1,4.189291E-1,9.952572E-1,6.0694957E-1,1.2342752E-1,-4.160971E-1,-1.0948662E0,-5.895885E-1,-2.0908296E-1,-6.654621E-1,3.945138E-1,-2.7676868E-1,-7.4589056E-1,1.0825161E-1,-3.2237154E-1,9.600578E-1,1.0022187E0,-3.225452E-1,6.918928E-1,2.9817393E-1,-3.552756E-2,2.3937454E-2,-4.816774E-2,1.6815901E-1,-4.588972E-2,-1.1114224E-1,-3.0576846E-2,-6.731291E-2,-8.910004E-2,-3.7133347E-3,-7.845666E-2,-8.065506E-3,9.826251E-2,6.558226E-3,4.5065727E-2,-4.3193158E-2,-1.7987197E-2,-8.684807E-2,-2.4402447E-3,1.1995951E-1,-4.709609E-2,4.8303794E-2,1.2041559E-1,-2.0470457E-1,1.0528616E-1,9.164869E-2,-6.4049385E-2,1.8483268E-2,7.082593E-2,-7.062177E-2,-1.4188393E-2,4.7131754E-2],"categories":[],"categories_nodes":[],"categories_segments":[],"categories_sizes":[],"default_left":[0,0,0,0,0,0,0,0,0,0,0,0,0,0,0,0,0,0,0,0,0,0,0,0,0,0,0,0,0,0,0,0,0,0,0,0,0,0,0,0,0,0,0,0,0,0,0,0,0,0,0,0,0,0,0,0,0,0,0,0,0,0,0],"id":14,"left_children":[1,3,5,7,9,11,13,15,17,19,21,23,25,27,29,31,33,35,37,39,41,43,45,47,49,51,53,55,57,59,61,-1,-1,-1,-1,-1,-1,-1,-1,-1,-1,-1,-1,-1,-1,-1,-1,-1,-1,-1,-1,-1,-1,-1,-1,-1,-1,-1,-1,-1,-1,-1,-1],"loss_changes":[4.404348E5,3.969883E4,5.0982562E4,2.8590562E4,1.3991125E4,9.154485E3,1.5970031E4,4.58574E3,1.3734453E4,5.0565605E3,1.72383E4,2.325003E3,4.6687827E3,2.634625E3,4.4014414E3,3.409257E3,2.9156309E3,6.389922E2,1.1167047E4,7.6335547E3,2.6966582E3,1.6596705E4,7.792444E3,1.7043291E3,5.302781E2,5.880113E2,4.9406787E3,1.23925E3,2.436694E2,3.0120625E3,2.758883E3,0E0,0E0,0E0,0E0,0E0,0E0,0E0,0E0,0E0,0E0,0E0,0E0,0E0,0E0,0E0,0E0,0E0,0E0,0E0,0E0,0E0,0E0,0E0,0E0,0E0,0E0,0E0,0E0,0E0,0E0,0E0,0E0],"parents":[2147483647,0,0,1,1,2,2,3,3,4,4,5,5,6,6,7,7,8,8,9,9,10,10,11,11,12,12,13,13,14,14,15,15,16,16,17,17,18,18,19,19,20,20,21,21,22,22,23,23,24,24,25,25,26,26,27,27,28,28,29,29,30,30],"right_children":[2,4,6,8,10,12,14,16,18,20,22,24,26,28,30,32,34,36,38,40,42,44,46,48,50,52,54,56,58,60,62,-1,-1,-1,-1,-1,-1,-1,-1,-1,-1,-1,-1,-1,-1,-1,-1,-1,-1,-1,-1,-1,-1,-1,-1,-1,-1,-1,-1,-1,-1,-1,-1],"split_conditions":[1.5933347E0,5.2415407E-1,-3.720071E-1,-3.7005818E-1,-8.367488E-2,3.7570742E-1,-2.5097284E-1,-4.0514526E-1,-1.6149491E0,-1.0024395E0,6.945255E-2,2.7099608E-2,-4.882659E-1,1.7206515E0,1.6439326E-1,-1.1473035E0,5.288348E-1,-4.3663654E-1,-3.7560943E-1,-1.4618217E0,2.022035E0,-8.612087E-3,-4.1971916E-1,-4.319197E-1,2.8766692E0,1.982801E-1,5.288348E-1,-3.5931444E-1,-3.2279795E-1,1.7206515E0,-1.13966E0,-3.552756E-2,2.3937454E-2,-4.816774E-2,1.6815901E-1,-4.588972E-2,-1.1114224E-1,-3.0576846E-2,-6.731291E-2,-8.910004E-2,-3.7133347E-3,-7.845666E-2,-8.065506E-3,9.826251E-2,6.558226E-3,4.5065727E-2,-4.3193158E-2,-1.7987197E-2,-8.684807E-2,-2.4402447E-3,1.1995951E-1,-4.709609E-2,4.8303794E-2,1.2041559E-1,-2.0470457E-1,1.0528616E-1,9.164869E-2,-6.4049385E-2,1.8483268E-2,7.082593E-2,-7.062177E-2,-1.4188393E-2,4.7131754E-2],"split_indices":[7,21,8,4,6,6,3,23,6,6,6,22,8,8,3,9,6,18,18,6,17,22,18,13,17,21,6,3,10,8,9,0,0,0,0,0,0,0,0,0,0,0,0,0,0,0,0,0,0,0,0,0,0,0,0,0,0,0,0,0,0,0,0],"split_type":[0,0,0,0,0,0,0,0,0,0,0,0,0,0,0,0,0,0,0,0,0,0,0,0,0,0,0,0,0,0,0,0,0,0,0,0,0,0,0,0,0,0,0,0,0,0,0,0,0,0,0,0,0,0,0,0,0,0,0,0,0,0,0],"sum_hessian":[1.3678091E6,8.729718E5,4.9483725E5,6.143252E5,2.5864666E5,3.9862184E4,4.5497506E5,8.260826E4,5.3171694E5,1.0381665E5,1.5483002E5,2.822514E4,1.1637042E4,2.8715634E5,1.6781872E5,6.142087E4,2.1187387E4,6.073421E4,4.709827E5,6.510121E4,3.8715438E4,8.579332E4,6.9036695E4,2.456347E4,3.661669E3,4.9104897E3,6.7265522E3,2.8564762E5,1.5087373E3,1.3161155E5,3.6207168E4,1.1975661E4,4.944521E4,2.054583E4,6.4155676E2,1.5417146E3,5.9192496E4,1.0710606E5,3.6387662E5,1.3109077E4,5.1992133E4,3.2164355E4,6.5510835E3,3.0772254E4,5.5021066E4,1.213661E4,5.6900082E4,4.3733716E3,2.01901E4,3.2656973E3,3.9597162E2,4.1460107E3,7.6447894E2,6.2220815E3,5.0447064E2,1.7956492E5,1.060827E5,9.273503E2,5.813871E2,1.3008921E5,1.5223411E3,1.0223508E4,2.598366E4],"tree_param":{"num_deleted":"0","num_feature":"25","num_nodes":"63","size_leaf_vector":"1"}},{"base_weights":[3.125995E-3,-3.9639598E-1,7.26682E-1,-5.4029363E-1,-1.1148691E-1,-2.9569614E-1,8.194495E-1,1.028265E-2,-6.3434654E-1,-3.7138748E-1,6.9080606E-2,-5.67344E-1,3.788005E-1,9.602995E-1,5.575404E-1,2.2558482E-1,-2.1259175E-1,-3.3151764E-1,-7.2026587E-1,-1.481723E-1,-6.1026484E-1,3.5830116E-1,-2.5682658E-1,-1.3674574E0,-4.6001467E-1,-3.5941508E-1,9.225034E-1,9.6712327E-1,-2.2989377E-1,6.209546E-1,1.7906183E-1,-3.5086304E-2,3.8936924E-2,-2.558597E-2,1.5720062E-1,-4.45065E-3,-4.868434E-2,-7.322412E-2,1.4569461E-1,-7.749144E-2,-2.7022283E-3,-4.4884667E-2,-7.872563E-2,8.9359425E-2,2.9337122E-3,-6.770032E-2,-3.090206E-3,-1.1969123E-1,-2.3291302E-1,2.248061E-2,-7.8653336E-2,1.402743E-1,-4.2252343E-2,1.15842976E-1,-1.7185168E-1,1.0283881E-1,8.72357E-2,-3.7562747E-2,7.531226E-2,2.6643967E-2,6.9745414E-2,-3.716127E-2,3.875531E-2],"categories":[],"categories_nodes":[],"categories_segments":[],"categories_sizes":[],"default_left":[0,0,0,0,0,0,0,0,0,0,0,0,0,0,0,0,0,0,0,0,0,0,0,0,0,0,0,0,0,0,0,0,0,0,0,0,0,0,0,0,0,0,0,0,0,0,0,0,0,0,0,0,0,0,0,0,0,0,0,0,0,0,0],"id":15,"left_children":[1,3,5,7,9,11,13,15,17,19,21,23,25,27,29,31,33,35,37,39,41,43,45,47,49,51,53,55,57,59,61,-1,-1,-1,-1,-1,-1,-1,-1,-1,-1,-1,-1,-1,-1,-1,-1,-1,-1,-1,-1,-1,-1,-1,-1,-1,-1,-1,-1,-1,-1,-1,-1],"loss_changes":[3.8027797E5,3.4746406E4,4.4384234E4,2.9159828E4,1.3347266E4,7.1333057E3,1.582675E4,3.9425422E3,1.2513578E4,6.2167383E3,1.5818494E4,2.3827334E3,4.486841E3,2.266125E3,3.6010703E3,3.9457188E3,3.1176692E3,4.7388486E3,9.769406E3,4.5765293E3,1.6086895E3,1.5657035E4,7.490324E3,5.355054E2,5.472404E3,5.278984E2,4.013E3,1.6097031E3,2.2824707E2,3.4850703E3,2.4724277E3,0E0,0E0,0E0,0E0,0E0,0E0,0E0,0E0,0E0,0E0,0E0,0E0,0E0,0E0,0E0,0E0,0E0,0E0,0E0,0E0,0E0,0E0,0E0,0E0,0E0,0E0,0E0,0E0,0E0,0E0,0E0,0E0],"parents":[2147483647,0,0,1,1,2,2,3,3,4,4,5,5,6,6,7,7,8,8,9,9,10,10,11,11,12,12,13,13,14,14,15,15,16,16,17,17,18,18,19,19,20,20,21,21,22,22,23,23,24,24,25,25,26,26,27,27,28,28,29,29,30,30],"right_children":[2,4,6,8,10,12,14,16,18,20,22,24,26,28,30,32,34,36,38,40,42,44,46,48,50,52,54,56,58,60,62,-1,-1,-1,-1,-1,-1,-1,-1,-1,-1,-1,-1,-1,-1,-1,-1,-1,-1,-1,-1,-1,-1,-1,-1,-1,-1,-1,-1,-1,-1,-1,-1],"split_conditions":[1.5933347E0,3.8857737E-1,-3.720071E-1,-3.7005818E-1,-8.367488E-2,3.7570742E-1,-2.3127437E-1,-4.9210298E-1,-3.7560943E-1,-2.945477E-1,6.945255E-2,-1.6149491E0,-4.882659E-1,1.7206515E0,3.5050988E-1,-3.8992974E-1,5.288348E-1,-4.7003078E-1,2.8766692E0,-1.4618217E0,-1.0024395E0,-6.4090327E-3,3.7570742E-1,-4.882659E-1,-1.0024395E0,-3.7005818E-1,5.288348E-1,-3.5727668E-1,1.0135627E0,-8.49312E-1,-8.367488E-2,-3.5086304E-2,3.8936924E-2,-2.558597E-2,1.5720062E-1,-4.45065E-3,-4.868434E-2,-7.322412E-2,1.4569461E-1,-7.749144E-2,-2.7022283E-3,-4.4884667E-2,-7.872563E-2,8.9359425E-2,2.9337122E-3,-6.770032E-2,-3.090206E-3,-1.1969123E-1,-2.3291302E-1,2.248061E-2,-7.8653336E-2,1.402743E-1,-4.2252343E-2,1.15842976E-1,-1.7185168E-1,1.0283881E-1,8.72357E-2,-3.7562747E-2,7.531226E-2,2.6643967E-2,6.9745414E-2,-3.716127E-2,3.875531E-2],"split_indices":[7,21,8,4,6,6,3,23,18,18,6,6,8,8,3,6,6,7,17,6,6,22,6,8,6,4,6,3,9,6,6,0,0,0,0,0,0,0,0,0,0,0,0,0,0,0,0,0,0,0,0,0,0,0,0,0,0,0,0,0,0,0,0],"split_type":[0,0,0,0,0,0,0,0,0,0,0,0,0,0,0,0,0,0,0,0,0,0,0,0,0,0,0,0,0,0,0,0,0,0,0,0,0,0,0,0,0,0,0,0,0,0,0,0,0,0,0,0,0,0,0,0,0,0,0,0,0,0,0],"sum_hessian":[1.3154902E6,8.475201E5,4.6797012E5,5.631113E5,2.844088E5,3.8929645E4,4.290405E5,8.215938E4,4.8095194E5,1.1659142E5,1.6781738E5,2.7752652E4,1.117699E4,2.789978E5,1.5004269E5,4.1789594E4,4.036979E4,1.0629881E5,3.7465312E5,6.027242E4,5.6318996E4,8.891301E4,7.8904375E4,3.2811042E3,2.4471549E4,4.740665E3,6.436325E3,2.7740753E5,1.5902776E3,1.2851015E5,2.1532545E4,9.246147E3,3.2543445E4,3.941502E4,9.547688E2,3.732708E4,6.8971734E4,3.7260434E5,2.048785E3,9.762573E3,5.0509848E4,2.9457219E4,2.686178E4,3.3842496E4,5.5070516E4,2.7590082E4,5.131429E4,2.7887808E3,4.9232355E2,7.9009277E3,1.6570621E4,1.6317392E2,4.5774907E3,5.9090244E3,5.273009E2,1.6847894E5,1.0892859E5,1.3854939E3,2.0478372E2,2.2809713E4,1.0570043E5,5.913312E3,1.5619232E4],"tree_param":{"num_deleted":"0","num_feature":"25","num_nodes":"63","size_leaf_vector":"1"}},{"base_weights":[4.4060076E-4,-3.72136E-1,6.9517887E-1,-5.716139E-1,-1.7473666E-1,-2.8268304E-1,7.8575766E-1,-1.0224414E0,-4.8678896E-1,3.2647434E-1,-4.2929167E-1,-5.4240966E-1,3.661819E-1,9.1812986E-1,4.8651308E-1,-6.126505E-1,-1.0429591E0,-2.3570046E-1,-6.7979527E-1,5.232466E-1,-2.0437673E-1,-5.9490055E-1,-6.023107E-2,-1.3246987E0,-4.4129542E-1,-2.8169873E-1,8.7492573E-1,9.972174E-1,8.107778E-1,2.3840196E-1,6.112692E-1,7.798057E-2,-1.10901475E-1,-2.7608026E-2,-1.05416E-1,2.0954872E-3,-3.854505E-2,1.6430466E-2,-7.6115884E-2,-5.6509294E-2,6.445815E-2,-6.1245557E-2,-3.021334E-3,-4.7147665E-2,-8.095249E-2,3.863826E-2,-2.7172375E-2,-1.1733098E-1,-2.1274696E-1,1.8336859E-2,-7.492467E-2,-3.8874593E-2,8.71379E-2,1.1136869E-1,-1.4934741E-1,1.003349E-1,-3.0664837E-2,6.607034E-2,8.6661845E-2,3.114002E-2,-5.52481E-2,1.4310195E-2,6.832691E-2],"categories":[],"categories_nodes":[],"categories_segments":[],"categories_sizes":[],"default_left":[0,0,0,0,0,0,0,0,0,0,0,0,0,0,0,0,0,0,0,0,0,0,0,0,0,0,0,0,0,0,0,0,0,0,0,0,0,0,0,0,0,0,0,0,0,0,0,0,0,0,0,0,0,0,0,0,0,0,0,0,0,0,0],"id":16,"left_children":[1,3,5,7,9,11,13,15,17,19,21,23,25,27,29,31,33,35,37,39,41,43,45,47,49,51,53,55,57,59,61,-1,-1,-1,-1,-1,-1,-1,-1,-1,-1,-1,-1,-1,-1,-1,-1,-1,-1,-1,-1,-1,-1,-1,-1,-1,-1,-1,-1,-1,-1,-1,-1],"loss_changes":[3.2711462E5,3.23915E4,3.9074438E4,1.5645906E4,5.2751574E4,6.303114E3,1.5992828E4,5.441172E2,1.6688023E4,1.4546809E4,1.675893E4,2.1121382E3,3.524255E3,2.3757812E3,3.8327559E3,2.1377683E3,5.296953E2,5.752129E3,1.3371742E4,1.3417055E4,2.676649E3,5.013297E3,8.0223726E3,3.6898047E2,4.5503027E3,5.8090704E2,3.3884019E3,1.2888594E3,9.945781E2,2.3922153E3,2.7773203E3,0E0,0E0,0E0,0E0,0E0,0E0,0E0,0E0,0E0,0E0,0E0,0E0,0E0,0E0,0E0,0E0,0E0,0E0,0E0,0E0,0E0,0E0,0E0,0E0,0E0,0E0,0E0,0E0,0E0,0E0,0E0,0E0],"parents":[2147483647,0,0,1,1,2,2,3,3,4,4,5,5,6,6,7,7,8,8,9,9,10,10,11,11,12,12,13,13,14,14,15,15,16,16,17,17,18,18,19,19,20,20,21,21,22,22,23,23,24,24,25,25,26,26,27,27,28,28,29,29,30,30],"right_children":[2,4,6,8,10,12,14,16,18,20,22,24,26,28,30,32,34,36,38,40,42,44,46,48,50,52,54,56,58,60,62,-1,-1,-1,-1,-1,-1,-1,-1,-1,-1,-1,-1,-1,-1,-1,-1,-1,-1,-1,-1,-1,-1,-1,-1,-1,-1,-1,-1,-1,-1,-1,-1],"split_conditions":[1.5933347E0,-8.367488E-2,-3.720071E-1,-1.6149491E0,6.945255E-2,3.7570742E-1,-1.9557299E-1,-1.1499857E0,-8.49312E-1,4.142687E-1,5.288348E-1,-1.6149491E0,-4.882659E-1,-3.5320112E-1,-1.13966E0,-3.438804E-1,-4.9210298E-1,-4.7003078E-1,-4.8035598E-1,-1.0595638E0,5.0189337E-3,1.0099984E0,-7.647973E-1,-4.882659E-1,-1.0024395E0,6.937017E-1,5.288348E-1,1.7206515E0,-8.49312E-1,4.1371405E-1,-8.49312E-1,7.798057E-2,-1.10901475E-1,-2.7608026E-2,-1.05416E-1,2.0954872E-3,-3.854505E-2,1.6430466E-2,-7.6115884E-2,-5.6509294E-2,6.445815E-2,-6.1245557E-2,-3.021334E-3,-4.7147665E-2,-8.095249E-2,3.863826E-2,-2.7172375E-2,-1.1733098E-1,-2.1274696E-1,1.8336859E-2,-7.492467E-2,-3.8874593E-2,8.71379E-2,1.1136869E-1,-1.4934741E-1,1.003349E-1,-3.0664837E-2,6.607034E-2,8.6661845E-2,3.114002E-2,-5.52481E-2,1.4310195E-2,6.832691E-2],"split_indices":[7,6,8,6,6,6,1,9,6,7,6,6,8,3,9,18,23,7,23,7,15,9,7,8,6,21,6,8,6,23,6,0,0,0,0,0,0,0,0,0,0,0,0,0,0,0,0,0,0,0,0,0,0,0,0,0,0,0,0,0,0,0,0],"split_type":[0,0,0,0,0,0,0,0,0,0,0,0,0,0,0,0,0,0,0,0,0,0,0,0,0,0,0,0,0,0,0,0,0,0,0,0,0,0,0,0,0,0,0,0,0,0,0,0,0,0,0,0,0,0,0,0,0,0,0,0,0,0,0],"sum_hessian":[1.2637539E6,8.2260494E5,4.411489E5,4.0914738E5,4.134576E5,3.7398926E4,4.0374997E5,6.4790082E4,3.443573E5,1.3925953E5,2.7419803E5,2.6708322E4,1.0690602E4,2.7992275E5,1.2382722E5,3.09074E3,6.1699344E4,1.4966075E5,1.9469656E5,1.0159939E5,3.766015E4,1.8926734E5,8.49307E4,3.0556472E3,2.3652676E4,4.702481E3,5.98812E3,1.6117503E5,1.1874773E5,4.143181E4,8.239541E4,8.120673E2,2.2786726E3,8.885712E2,6.0810773E4,5.5146492E4,9.451425E4,1.7116955E4,1.7757961E5,1.0190434E4,9.140895E4,1.1264351E4,2.6395797E4,1.2016646E5,6.9100875E4,2.7293533E4,5.763717E4,2.572903E3,4.8274414E2,7.810292E3,1.5842384E4,4.3036133E3,3.988677E2,5.4402153E3,5.4790466E2,1.6042088E5,7.541604E2,3.2205854E4,8.6541875E4,3.7931363E4,3.500446E3,1.098304E4,7.141237E4],"tree_param":{"num_deleted":"0","num_feature":"25","num_nodes":"63","size_leaf_vector":"1"}},{"base_weights":[1.3026963E-3,-3.4281388E-1,6.6303444E-1,-9.034155E-1,-2.78052E-1,-2.592179E-1,7.512992E-1,-9.726775E-1,-3.4931177E-1,-4.21662E-1,-7.099365E-2,-4.7806787E-1,3.0202502E-1,8.640179E-1,3.802602E-1,3.612692E-1,-9.9680316E-1,-9.6720797E-1,9.98219E-1,6.340002E-2,-5.447558E-1,5.563733E-1,-1.2092693E-1,4.6373853E-1,-5.751781E-1,-3.8088915E-1,8.476816E-1,9.492293E-1,7.1383756E-1,1.9251071E-1,5.973926E-1,1.1607597E-1,-1.3380723E-1,-5.7743113E-2,-1.0175663E-1,-1.0090692E-1,-8.640933E-3,1.991102E-3,1.6808394E-1,2.332131E-3,1.2986206E-1,-9.546636E-3,-6.068472E-2,3.5260927E-2,1.0127769E-1,2.88797E-2,-2.2102414E-2,5.730616E-2,-1.7088756E-1,-2.3254415E-2,-8.490256E-2,1.23125486E-1,-4.391831E-2,1.0829333E-1,-1.354004E-1,9.559773E-2,-3.1343896E-2,7.253049E-2,-3.1838875E-2,2.6465235E-2,-3.4920327E-2,6.822692E-2,7.3840604E-3],"categories":[],"categories_nodes":[],"categories_segments":[],"categories_sizes":[],"default_left":[0,0,0,0,0,0,0,0,0,0,0,0,0,0,0,0,0,0,0,0,0,0,0,0,0,0,0,0,0,0,0,0,0,0,0,0,0,0,0,0,0,0,0,0,0,0,0,0,0,0,0,0,0,0,0,0,0,0,0,0,0,0,0],"id":17,"left_children":[1,3,5,7,9,11,13,15,17,19,21,23,25,27,29,31,33,35,37,39,41,43,45,47,49,51,53,55,57,59,61,-1,-1,-1,-1,-1,-1,-1,-1,-1,-1,-1,-1,-1,-1,-1,-1,-1,-1,-1,-1,-1,-1,-1,-1,-1,-1,-1,-1,-1,-1,-1,-1],"loss_changes":[2.7698284E5,2.9052594E4,3.387489E4,3.180086E3,2.1331148E4,4.4648037E3,1.5883672E4,2.3709766E3,7.668918E3,2.5291102E4,9.203271E3,2.3920864E3,3.8004902E3,3.7270938E3,3.60754E3,1.7803956E3,6.294297E2,2.3273828E2,1.93377E3,4.244385E3,9.424773E3,2.0139077E3,1.1160529E4,5.8171533E2,2.224291E3,4.2626648E2,2.9377297E3,1.58375E3,1.2484648E3,1.8548518E3,1.8234863E3,0E0,0E0,0E0,0E0,0E0,0E0,0E0,0E0,0E0,0E0,0E0,0E0,0E0,0E0,0E0,0E0,0E0,0E0,0E0,0E0,0E0,0E0,0E0,0E0,0E0,0E0,0E0,0E0,0E0,0E0,0E0,0E0],"parents":[2147483647,0,0,1,1,2,2,3,3,4,4,5,5,6,6,7,7,8,8,9,9,10,10,11,11,12,12,13,13,14,14,15,15,16,16,17,17,18,18,19,19,20,20,21,21,22,22,23,23,24,24,25,25,26,26,27,27,28,28,29,29,30,30],"right_children":[2,4,6,8,10,12,14,16,18,20,22,24,26,28,30,32,34,36,38,40,42,44,46,48,50,52,54,56,58,60,62,-1,-1,-1,-1,-1,-1,-1,-1,-1,-1,-1,-1,-1,-1,-1,-1,-1,-1,-1,-1,-1,-1,-1,-1,-1,-1,-1,-1,-1,-1,-1,-1],"split_conditions":[1.5933347E0,-1.4618217E0,-3.720071E-1,1.2985681E0,2.411669E-1,3.7570742E-1,-1.1817796E-1,-4.9210298E-1,-1.6149491E0,-3.6799246E-1,-4.5429778E-1,-4.7254547E-1,-4.882659E-1,-3.1244567E-1,6.945255E-2,-5.0309014E-1,-1.1499857E0,1.2841165E0,-2.3230672E-2,2.8766692E0,-4.1971916E-1,1.0038017E0,-8.0755514E-1,2.2257997E-1,-1.0024395E0,-3.7005818E-1,5.288348E-1,1.7206515E0,1.7206515E0,5.735274E-1,5.288348E-1,1.1607597E-1,-1.3380723E-1,-5.7743113E-2,-1.0175663E-1,-1.0090692E-1,-8.640933E-3,1.991102E-3,1.6808394E-1,2.332131E-3,1.2986206E-1,-9.546636E-3,-6.068472E-2,3.5260927E-2,1.0127769E-1,2.88797E-2,-2.2102414E-2,5.730616E-2,-1.7088756E-1,-2.3254415E-2,-8.490256E-2,1.23125486E-1,-4.391831E-2,1.0829333E-1,-1.354004E-1,9.559773E-2,-3.1343896E-2,7.253049E-2,-3.1838875E-2,2.6465235E-2,-3.4920327E-2,6.822692E-2,7.3840604E-3],"split_indices":[7,6,8,7,21,6,3,23,6,5,18,23,8,3,6,24,9,21,8,17,18,7,15,6,6,4,6,8,8,13,6,0,0,0,0,0,0,0,0,0,0,0,0,0,0,0,0,0,0,0,0,0,0,0,0,0,0,0,0,0,0,0,0],"split_type":[0,0,0,0,0,0,0,0,0,0,0,0,0,0,0,0,0,0,0,0,0,0,0,0,0,0,0,0,0,0,0,0,0,0,0,0,0,0,0,0,0,0,0,0,0,0,0,0,0,0,0,0,0,0,0,0,0,0,0,0,0,0,0],"sum_hessian":[1.2163669E6,8.0022894E5,4.16138E5,8.286938E4,7.1735956E5,3.634787E4,3.7979012E5,7.366112E4,9.20827E3,4.235771E5,2.9378247E5,2.615082E4,1.0197052E4,2.9129553E5,8.849459E4,1.3083131E3,7.2352805E4,6.3135425E3,2.8947268E3,8.573426E4,3.378428E5,2.1658072E4,2.7212438E5,2.4440312E3,2.370679E4,4.5290454E3,5.668006E3,1.8584364E5,1.05451875E5,4.745941E4,4.1035188E4,8.899395E2,4.183736E2,3.4145598E3,6.893824E4,6.026957E3,2.8658545E2,1.1901188E3,1.704608E3,8.304088E4,2.693376E3,4.1020844E4,2.9682197E5,1.4974426E4,6.683646E3,5.3427957E4,2.1869644E5,2.3276436E3,1.1638772E2,1.0531626E4,1.3175163E4,1.5734981E2,4.371696E3,5.1213E3,5.4670654E2,1.8485598E5,9.8766614E2,1.0429354E5,1.158336E3,4.188233E4,5.577081E3,3.531047E4,5.724717E3],"tree_param":{"num_deleted":"0","num_feature":"25","num_nodes":"63","size_leaf_vector":"1"}},{"base_weights":[1.2676466E-3,-3.1876123E-1,6.3499737E-1,-5.044543E-1,-1.4044535E-1,-2.3280333E-1,7.1987295E-1,-2.8695711E-1,-6.761883E-1,3.0600557E-1,-3.7324715E-1,-4.3265706E-1,2.9968446E-1,8.933463E-1,4.6577325E-1,-6.980362E-1,-1.6962719E-1,2.0705575E-1,-7.3701894E-1,7.118196E-1,8.621762E-2,-5.3276813E-1,-2.7919404E-2,-1.2796963E0,-3.2842728E-1,-2.8295752E-1,7.950286E-1,9.008422E-1,-1.8728095E-1,5.995267E-1,2.5488552E-1,-8.48758E-2,1.8542586E-2,9.154744E-3,-5.2810397E-2,-2.8857023E-2,3.950158E-2,-7.957991E-2,-3.4308963E-2,8.779678E-2,-4.6855565E-2,4.904931E-2,-1.228815E-2,-4.547195E-2,-8.977221E-2,3.1161705E-2,-2.7526155E-2,-1.14858665E-1,-1.9034086E-1,2.0136787E-2,-6.0734034E-2,3.0399784E-1,-3.244933E-2,1.0425613E-1,-1.3665225E-1,9.64199E-2,7.966991E-2,-6.057718E-2,1.3457489E-2,3.288135E-2,6.748896E-2,-7.993458E-3,4.085384E-2],"categories":[],"categories_nodes":[],"categories_segments":[],"categories_sizes":[],"default_left":[0,0,0,0,0,0,0,0,0,0,0,0,0,0,0,0,0,0,0,0,0,0,0,0,0,0,0,0,0,0,0,0,0,0,0,0,0,0,0,0,0,0,0,0,0,0,0,0,0,0,0,0,0,0,0,0,0,0,0,0,0,0,0],"id":18,"left_children":[1,3,5,7,9,11,13,15,17,19,21,23,25,27,29,31,33,35,37,39,41,43,45,47,49,51,53,55,57,59,61,-1,-1,-1,-1,-1,-1,-1,-1,-1,-1,-1,-1,-1,-1,-1,-1,-1,-1,-1,-1,-1,-1,-1,-1,-1,-1,-1,-1,-1,-1,-1,-1],"loss_changes":[2.3820833E5,2.5841273E4,2.9028172E4,1.427943E4,4.1378594E4,3.7367866E3,1.5823953E4,8.1355664E3,1.1477836E4,1.217026E4,1.441473E4,2.253609E3,2.7658638E3,1.7282969E3,4.1082656E3,4.987381E3,1.2286076E4,1.2824785E3,4.6275312E3,9.401791E3,7.482363E3,5.097953E3,6.943997E3,2.2654102E2,3.3595623E3,6.088379E2,2.7728E3,1.3972188E3,1.981505E2,1.8180801E3,2.9082131E3,0E0,0E0,0E0,0E0,0E0,0E0,0E0,0E0,0E0,0E0,0E0,0E0,0E0,0E0,0E0,0E0,0E0,0E0,0E0,0E0,0E0,0E0,0E0,0E0,0E0,0E0,0E0,0E0,0E0,0E0,0E0,0E0],"parents":[2147483647,0,0,1,1,2,2,3,3,4,4,5,5,6,6,7,7,8,8,9,9,10,10,11,11,12,12,13,13,14,14,15,15,16,16,17,17,18,18,19,19,20,20,21,21,22,22,23,23,24,24,25,25,26,26,27,27,28,28,29,29,30,30],"right_children":[2,4,6,8,10,12,14,16,18,20,22,24,26,28,30,32,34,36,38,40,42,44,46,48,50,52,54,56,58,60,62,-1,-1,-1,-1,-1,-1,-1,-1,-1,-1,-1,-1,-1,-1,-1,-1,-1,-1,-1,-1,-1,-1,-1,-1,-1,-1,-1,-1,-1,-1,-1,-1],"split_conditions":[1.5933347E0,-8.367488E-2,-3.720071E-1,-3.0649078E-1,6.945255E-2,3.7570742E-1,-2.540918E-1,-1.4618217E0,-4.0834114E-1,-3.5558316E-1,5.288348E-1,-1.6149491E0,-4.882659E-1,1.7206515E0,-7.7985795E-3,1.2985681E0,-2.0869122E-1,-1.1429615E0,1.0771416E0,4.142687E-1,-3.4303796E-1,4.891618E-1,-4.7003078E-1,-4.882659E-1,-1.0024395E0,-1.1501008E0,5.288348E-1,-3.5931444E-1,-2.3680231E-1,-8.49312E-1,-1.13966E0,-8.48758E-2,1.8542586E-2,9.154744E-3,-5.2810397E-2,-2.8857023E-2,3.950158E-2,-7.957991E-2,-3.4308963E-2,8.779678E-2,-4.6855565E-2,4.904931E-2,-1.228815E-2,-4.547195E-2,-8.977221E-2,3.1161705E-2,-2.7526155E-2,-1.14858665E-1,-1.9034086E-1,2.0136787E-2,-6.0734034E-2,3.0399784E-1,-3.244933E-2,1.0425613E-1,-1.3665225E-1,9.64199E-2,7.966991E-2,-6.057718E-2,1.3457489E-2,3.288135E-2,6.748896E-2,-7.993458E-3,4.085384E-2],"split_indices":[7,6,8,18,6,6,1,6,23,15,6,6,8,8,3,7,24,9,21,7,4,24,7,8,6,9,6,3,6,6,9,0,0,0,0,0,0,0,0,0,0,0,0,0,0,0,0,0,0,0,0,0,0,0,0,0,0,0,0,0,0,0,0],"split_type":[0,0,0,0,0,0,0,0,0,0,0,0,0,0,0,0,0,0,0,0,0,0,0,0,0,0,0,0,0,0,0,0,0,0,0,0,0,0,0,0,0,0,0,0,0,0,0,0,0,0,0,0,0,0,0,0,0,0,0,0,0,0,0],"sum_hessian":[1.1745269E6,7.804206E5,3.9410625E5,3.8230122E5,3.9811944E5,3.5111457E4,3.5899478E5,1.686776E5,2.1362362E5,1.3644825E5,2.6167117E5,2.5529785E4,9.581672E3,2.1334323E5,1.4565155E5,3.745271E4,1.3122489E5,1.3764496E4,1.9985912E5,4.793653E4,8.851172E4,1.7898853E5,8.268265E4,2.796042E3,2.2733744E4,4.40306E3,5.178612E3,2.1187372E5,1.4695139E3,8.912381E4,5.6527734E4,3.1994393E4,5.458319E3,7.591581E4,5.5309074E4,3.7845637E3,9.979933E3,1.7390836E5,2.5950771E4,4.2021844E4,5.9146875E3,3.0173146E4,5.8338574E4,1.4745602E5,3.1532518E4,3.4846797E4,4.783585E4,2.3127283E3,4.8331393E2,7.840672E3,1.4893072E4,5.3466354E1,4.3495938E3,4.6469756E3,5.316365E2,1.317274E5,8.014632E4,6.384681E2,8.3104584E2,1.9409127E4,6.971469E4,1.7781375E4,3.874636E4],"tree_param":{"num_deleted":"0","num_feature":"25","num_nodes":"63","size_leaf_vector":"1"}},{"base_weights":[4.0271482E-3,-2.8966257E-1,6.032328E-1,-9.5582384E-1,-2.4018757E-1,-2.3775811E-1,6.8760204E-1,-7.124371E-1,-9.972743E-1,-3.785951E-1,-6.0866207E-2,-4.3155098E-1,2.7920356E-1,8.729465E-1,4.4128186E-1,5.024532E-1,-9.166791E-1,-2.2808601E-1,-1.0117453E0,4.445098E-2,-4.8728156E-1,-2.533587E-1,6.5484814E-2,4.6104717E-1,-5.181013E-1,-2.576254E-1,7.644239E-1,8.806122E-1,-2.1882083E-1,5.671264E-1,2.326712E-1,-2.976855E-2,2.1944189E-1,3.353047E-1,-9.502802E-2,-1.0356168E-1,1.0263312E-1,-4.794342E-2,-1.0363064E-1,-3.2670286E-2,1.2636698E-2,-1.22827655E-2,-5.4870404E-2,-2.2070478E-3,-5.452556E-2,3.032099E-2,-1.6678844E-2,6.540538E-2,-1.0992409E-1,-1.9413771E-2,-7.9182334E-2,-3.775264E-2,8.355035E-2,1.0103138E-1,-1.2809514E-1,9.59754E-2,7.959441E-2,-3.314277E-2,7.006138E-2,5.9802372E-2,-6.3899844E-3,-4.1820504E-2,3.1125793E-2],"categories":[],"categories_nodes":[],"categories_segments":[],"categories_sizes":[],"default_left":[0,0,0,0,0,0,0,0,0,0,0,0,0,0,0,0,0,0,0,0,0,0,0,0,0,0,0,0,0,0,0,0,0,0,0,0,0,0,0,0,0,0,0,0,0,0,0,0,0,0,0,0,0,0,0,0,0,0,0,0,0,0,0],"id":19,"left_children":[1,3,5,7,9,11,13,15,17,19,21,23,25,27,29,31,33,35,37,39,41,43,45,47,49,51,53,55,57,59,61,-1,-1,-1,-1,-1,-1,-1,-1,-1,-1,-1,-1,-1,-1,-1,-1,-1,-1,-1,-1,-1,-1,-1,-1,-1,-1,-1,-1,-1,-1,-1,-1],"loss_changes":[1.9968112E5,2.509625E4,2.6481266E4,5.303711E2,1.7592473E4,3.4092183E3,1.5484953E4,1.9022031E3,5.004375E2,1.8393922E4,7.5098936E3,1.9123525E3,2.417131E3,1.6200469E3,3.8232832E3,1.4948333E3,9.445581E2,8.437412E2,5.767031E2,2.4861514E3,7.1247734E3,8.260846E3,1.0293301E4,6.5972766E2,2.0006816E3,5.777793E2,2.4525576E3,1.287125E3,1.400358E2,1.7711367E3,2.803226E3,0E0,0E0,0E0,0E0,0E0,0E0,0E0,0E0,0E0,0E0,0E0,0E0,0E0,0E0,0E0,0E0,0E0,0E0,0E0,0E0,0E0,0E0,0E0,0E0,0E0,0E0,0E0,0E0,0E0,0E0,0E0,0E0],"parents":[2147483647,0,0,1,1,2,2,3,3,4,4,5,5,6,6,7,7,8,8,9,9,10,10,11,11,12,12,13,13,14,14,15,15,16,16,17,17,18,18,19,19,20,20,21,21,22,22,23,23,24,24,25,25,26,26,27,27,28,28,29,29,30,30],"right_children":[2,4,6,8,10,12,14,16,18,20,22,24,26,28,30,32,34,36,38,40,42,44,46,48,50,52,54,56,58,60,62,-1,-1,-1,-1,-1,-1,-1,-1,-1,-1,-1,-1,-1,-1,-1,-1,-1,-1,-1,-1,-1,-1,-1,-1,-1,-1,-1,-1,-1,-1,-1,-1],"split_conditions":[1.5933347E0,-1.6149491E0,-3.720071E-1,-2.227459E0,1.7769186E-1,3.7570742E-1,-2.6252022E-1,-7.647973E-1,-4.9210298E-1,-3.7352216E-1,-8.367488E-2,-4.8035598E-1,-4.882659E-1,1.7206515E0,-3.0437754E-3,1.1911976E0,-4.1983968E-1,4.4984438E-2,-4.343701E-1,-1.1473035E0,-4.1971916E-1,-1.0024395E0,6.945255E-2,6.945255E-2,-1.0024395E0,6.3303435E-1,5.288348E-1,-3.848162E-1,1.0140128E0,1.6043926E0,-8.49312E-1,-2.976855E-2,2.1944189E-1,3.353047E-1,-9.502802E-2,-1.0356168E-1,1.0263312E-1,-4.794342E-2,-1.0363064E-1,-3.2670286E-2,1.2636698E-2,-1.22827655E-2,-5.4870404E-2,-2.2070478E-3,-5.452556E-2,3.032099E-2,-1.6678844E-2,6.540538E-2,-1.0992409E-1,-1.9413771E-2,-7.9182334E-2,-3.775264E-2,8.355035E-2,1.0103138E-1,-1.2809514E-1,9.59754E-2,7.959441E-2,-3.314277E-2,7.006138E-2,5.9802372E-2,-6.3899844E-3,-4.1820504E-2,3.1125793E-2],"split_indices":[7,6,8,6,21,6,3,7,23,5,6,23,8,8,3,17,12,14,18,9,18,6,6,6,6,21,6,2,9,8,6,0,0,0,0,0,0,0,0,0,0,0,0,0,0,0,0,0,0,0,0,0,0,0,0,0,0,0,0,0,0,0,0],"split_type":[0,0,0,0,0,0,0,0,0,0,0,0,0,0,0,0,0,0,0,0,0,0,0,0,0,0,0,0,0,0,0,0,0,0,0,0,0,0,0,0,0,0,0,0,0,0,0,0,0,0,0,0,0,0,0,0,0,0,0,0,0,0,0],"sum_hessian":[1.1346752E6,7.6146006E5,3.7321522E5,5.264173E4,7.088184E5,3.4027547E4,3.391877E5,7.663251E3,4.497848E4,4.000457E5,3.087727E5,2.4749787E4,9.27776E3,1.9354877E5,1.4563892E5,1.1026874E3,6.5605635E3,8.308802E2,4.4147598E4,8.1769695E4,3.1827597E5,1.2235976E5,1.8641292E5,2.187337E3,2.256245E4,4.404861E3,4.8728984E3,1.9219945E5,1.3493073E3,9.083868E4,5.480024E4,7.492076E2,3.5347983E2,5.0454643E1,6.510109E3,5.0558463E2,3.2529553E2,1.9480529E3,4.2199547E4,1.4783596E4,6.69861E4,4.5904145E4,2.7237184E5,6.826789E4,5.4091863E4,9.212514E4,9.428778E4,1.9470668E3,2.4027005E2,1.0333706E4,1.2228744E4,3.970056E3,4.3480508E2,4.350409E3,5.224891E2,9.93364E4,9.2863055E4,1.2026531E3,1.4665424E2,8.659856E4,4.240119E3,5.9032905E3,4.889695E4],"tree_param":{"num_deleted":"0","num_feature":"25","num_nodes":"63","size_leaf_vector":"1"}},{"base_weights":[4.154932E-3,-2.6730788E-1,5.753023E-1,-8.211578E-1,-2.1030131E-1,-1.9160369E-1,6.5493244E-1,-8.9817774E-1,-2.6050666E-1,-3.733344E-1,-6.800909E-2,-1.2281384E0,-1.0480666E-1,8.4505403E-1,4.0498656E-1,3.2264835E-1,-9.227167E-1,-8.866383E-1,8.225227E-1,6.036305E-2,-5.1993203E-1,-9.8703206E-2,9.53393E-1,-1.1281122E0,-1.679707E0,-2.7108362E-1,2.9768413E-1,9.1914994E-1,7.433926E-1,4.2548317E-1,-8.159862E-1,9.795576E-2,-1.0250118E-1,-7.5070836E-2,-9.919848E-2,-1.0033796E-1,-2.5603518E-2,1.1094737E-1,-8.250465E-2,1.3583662E-2,-3.920086E-2,-1.3000274E-2,-5.9154015E-2,4.9529787E-2,-1.4686557E-2,1.4669828E-1,4.7963593E-2,1.3480766E-1,-1.1404653E-1,1.023873E-1,-1.7454094E-1,1.9631086E-2,-5.34134E-2,-2.0428564E-2,7.583552E-2,9.260797E-2,-2.0983314E-2,5.469383E-2,7.943665E-2,5.236363E-2,1.8720832E-2,-1.9056886E-1,-2.7471993E-2],"categories":[],"categories_nodes":[],"categories_segments":[],"categories_sizes":[],"default_left":[0,0,0,0,0,0,0,0,0,0,0,0,0,0,0,0,0,0,0,0,0,0,0,0,0,0,0,0,0,0,0,0,0,0,0,0,0,0,0,0,0,0,0,0,0,0,0,0,0,0,0,0,0,0,0,0,0,0,0,0,0,0,0],"id":20,"left_children":[1,3,5,7,9,11,13,15,17,19,21,23,25,27,29,31,33,35,37,39,41,43,45,47,49,51,53,55,57,59,61,-1,-1,-1,-1,-1,-1,-1,-1,-1,-1,-1,-1,-1,-1,-1,-1,-1,-1,-1,-1,-1,-1,-1,-1,-1,-1,-1,-1,-1,-1,-1,-1],"loss_changes":[1.7021752E5,2.3495312E4,2.1599898E4,2.9985625E3,1.5652266E4,2.9932412E3,1.5226281E4,1.8294648E3,5.6897275E3,1.9991875E4,1.129512E4,1.1422095E2,2.0547927E3,1.3702031E3,3.4647812E3,1.0667568E3,7.1241406E2,3.9113135E2,1.4541553E3,2.7121936E3,6.561754E3,1.0006361E4,2.5567686E3,6.6005615E1,8.4230835E1,2.6713691E3,2.075793E3,8.2372656E2,7.679375E2,3.1840938E3,1.3477385E3,0E0,0E0,0E0,0E0,0E0,0E0,0E0,0E0,0E0,0E0,0E0,0E0,0E0,0E0,0E0,0E0,0E0,0E0,0E0,0E0,0E0,0E0,0E0,0E0,0E0,0E0,0E0,0E0,0E0,0E0,0E0,0E0],"parents":[2147483647,0,0,1,1,2,2,3,3,4,4,5,5,6,6,7,7,8,8,9,9,10,10,11,11,12,12,13,13,14,14,15,15,16,16,17,17,18,18,19,19,20,20,21,21,22,22,23,23,24,24,25,25,26,26,27,27,28,28,29,29,30,30],"right_children":[2,4,6,8,10,12,14,16,18,20,22,24,26,28,30,32,34,36,38,40,42,44,46,48,50,52,54,56,58,60,62,-1,-1,-1,-1,-1,-1,-1,-1,-1,-1,-1,-1,-1,-1,-1,-1,-1,-1,-1,-1,-1,-1,-1,-1,-1,-1,-1,-1,-1,-1,-1,-1],"split_conditions":[1.5933347E0,-1.4618217E0,-3.720071E-1,1.2985681E0,-5.2578818E-2,-1.6149491E0,-2.587467E-1,-4.9210298E-1,-1.6149491E0,-3.6848924E-1,3.516876E-2,-4.882659E-1,3.7570742E-1,-3.6781076E-1,1.7206515E0,-5.0309014E-1,-3.8520294E-1,4.918877E-1,2.9897705E-1,2.2257997E-1,-4.1100827E-1,-4.5162198E-1,-9.708038E-2,-3.0982392E0,-2.3106221E-2,-1.0024395E0,-4.882659E-1,1.7206515E0,-1.1555669E0,8.3056405E-2,-2.3680231E-1,9.795576E-2,-1.0250118E-1,-7.5070836E-2,-9.919848E-2,-1.0033796E-1,-2.5603518E-2,1.1094737E-1,-8.250465E-2,1.3583662E-2,-3.920086E-2,-1.3000274E-2,-5.9154015E-2,4.9529787E-2,-1.4686557E-2,1.4669828E-1,4.7963593E-2,1.3480766E-1,-1.1404653E-1,1.023873E-1,-1.7454094E-1,1.9631086E-2,-5.34134E-2,-2.0428564E-2,7.583552E-2,9.260797E-2,-2.0983314E-2,5.469383E-2,7.943665E-2,5.236363E-2,1.8720832E-2,-1.9056886E-1,-2.7471993E-2],"split_indices":[7,6,8,7,21,6,1,23,6,5,22,8,6,2,8,24,18,21,21,6,18,18,5,22,22,6,8,8,6,1,6,0,0,0,0,0,0,0,0,0,0,0,0,0,0,0,0,0,0,0,0,0,0,0,0,0,0,0,0,0,0,0,0],"split_type":[0,0,0,0,0,0,0,0,0,0,0,0,0,0,0,0,0,0,0,0,0,0,0,0,0,0,0,0,0,0,0,0,0,0,0,0,0,0,0,0,0,0,0,0,0,0,0,0,0,0,0,0,0,0,0,0,0,0,0,0,0,0,0],"sum_hessian":[1.097855E6,7.4416056E5,3.536944E5,6.944558E4,6.7471494E5,3.327044E4,3.2042394E5,6.10572E4,8.388382E3,3.1443988E5,3.602751E5,2.5697075E3,3.0700734E4,1.819904E5,1.3843355E5,1.2028452E3,5.9854355E4,5.3155093E3,3.0728733E3,7.9435836E4,2.3500405E5,3.497652E5,1.0509877E4,2.10658E3,4.6312756E2,2.1725729E4,8.975005E3,1.0526214E5,7.6728266E4,1.3614866E5,2.2848906E3,8.088493E2,3.9399588E2,1.7186998E4,4.2667355E4,4.484684E3,8.30825E2,2.6173464E3,4.5552686E2,6.807837E4,1.1357476E4,3.646161E4,1.9854244E5,2.6231758E4,3.2353344E5,5.041932E3,5.467945E3,9.920339E0,2.0966597E3,1.0641886E1,4.5248566E2,7.824037E3,1.3901692E4,4.2952485E3,4.679757E3,1.0462016E5,6.4197925E2,1.5809603E4,6.0918664E4,9.642632E4,3.9722332E4,7.574455E2,1.5274451E3],"tree_param":{"num_deleted":"0","num_feature":"25","num_nodes":"63","size_leaf_vector":"1"}},{"base_weights":[3.6861338E-3,-2.4662687E-1,5.4608804E-1,-9.0290296E-1,-2.0317E-1,-2.0872757E-1,6.256175E-1,-2.628265E-1,-9.314536E-1,-2.584545E-1,1.628301E-1,-1.2229208E0,-1.2811317E-1,8.225457E-1,3.852098E-1,8.1796527E-1,-5.682344E-1,-9.498126E-1,-2.690624E-3,-4.0440363E-1,-1.0209724E-1,7.687912E-2,8.762524E-1,-1.1260462E0,-1.6332972E0,-5.362596E-1,7.7809873E-3,9.131888E-1,7.2890306E-1,1.7662586E-1,5.0032353E-1,3.9748126E-1,-1.7424343E-2,-7.951673E-2,1.6469352E-1,-4.876974E-2,-9.7432695E-2,8.485164E-2,-7.8525834E-2,1.6366212E-2,-4.6400484E-2,2.16317E-2,-1.8836642E-2,2.611957E-2,-1.1387928E-2,1.2617318E-1,3.551616E-2,-1.266682E-1,-1.11188196E-1,-1.8210714E-1,-1.3382217E-1,-7.46075E-2,5.059041E-3,4.100491E-2,-1.6112681E-2,9.210824E-2,-4.3372188E-2,5.3857278E-2,7.805392E-2,2.178741E-2,-1.0464122E-1,1.2072979E-2,5.7617705E-2],"categories":[],"categories_nodes":[],"categories_segments":[],"categories_sizes":[],"default_left":[0,0,0,0,0,0,0,0,0,0,0,0,0,0,0,0,0,0,0,0,0,0,0,0,0,0,0,0,0,0,0,0,0,0,0,0,0,0,0,0,0,0,0,0,0,0,0,0,0,0,0,0,0,0,0,0,0,0,0,0,0,0,0],"id":21,"left_children":[1,3,5,7,9,11,13,15,17,19,21,23,25,27,29,31,33,35,37,39,41,43,45,47,49,51,53,55,57,59,61,-1,-1,-1,-1,-1,-1,-1,-1,-1,-1,-1,-1,-1,-1,-1,-1,-1,-1,-1,-1,-1,-1,-1,-1,-1,-1,-1,-1,-1,-1,-1,-1],"loss_changes":[1.447901E5,2.081036E4,2.0214938E4,8.2790625E2,1.3847754E4,2.624221E3,1.4422586E4,6.3965247E2,7.3970703E2,1.3568059E4,5.5070176E3,9.211987E1,1.6493398E3,1.4207812E3,3.293754E3,1.3383174E3,7.6058E2,4.814414E2,5.614866E2,1.0411805E4,7.885075E3,2.818253E3,1.9392568E3,2.4069824E0,2.244934E1,9.1462866E2,1.5159341E3,9.0510156E2,8.0916016E2,2.461398E3,2.545168E3,0E0,0E0,0E0,0E0,0E0,0E0,0E0,0E0,0E0,0E0,0E0,0E0,0E0,0E0,0E0,0E0,0E0,0E0,0E0,0E0,0E0,0E0,0E0,0E0,0E0,0E0,0E0,0E0,0E0,0E0,0E0,0E0],"parents":[2147483647,0,0,1,1,2,2,3,3,4,4,5,5,6,6,7,7,8,8,9,9,10,10,11,11,12,12,13,13,14,14,15,15,16,16,17,17,18,18,19,19,20,20,21,21,22,22,23,23,24,24,25,25,26,26,27,27,28,28,29,29,30,30],"right_children":[2,4,6,8,10,12,14,16,18,20,22,24,26,28,30,32,34,36,38,40,42,44,46,48,50,52,54,56,58,60,62,-1,-1,-1,-1,-1,-1,-1,-1,-1,-1,-1,-1,-1,-1,-1,-1,-1,-1,-1,-1,-1,-1,-1,-1,-1,-1,-1,-1,-1,-1,-1,-1],"split_conditions":[1.5933347E0,-1.6149491E0,-3.720071E-1,-4.343701E-1,2.7099608E-2,-1.6149491E0,-2.6252022E-1,-4.7003078E-1,2.1818244E0,1.1010304E-1,2.8766692E0,-4.882659E-1,-2.6464563E-2,-3.848162E-1,-1.13966E0,-4.7719482E-1,-3.229281E-1,-1.1499857E0,-5.0133127E-1,-3.0010978E-2,-6.559864E-1,-1.7526428E-1,-3.019769E-1,-4.3663654E-1,-2.1089664E-1,3.7570742E-1,-3.548198E-1,1.7206515E0,-1.1555669E0,7.596939E-1,-8.49312E-1,3.9748126E-1,-1.7424343E-2,-7.951673E-2,1.6469352E-1,-4.876974E-2,-9.7432695E-2,8.485164E-2,-7.8525834E-2,1.6366212E-2,-4.6400484E-2,2.16317E-2,-1.8836642E-2,2.611957E-2,-1.1387928E-2,1.2617318E-1,3.551616E-2,-1.266682E-1,-1.11188196E-1,-1.8210714E-1,-1.3382217E-1,-7.46075E-2,5.059041E-3,4.100491E-2,-1.6112681E-2,9.210824E-2,-4.3372188E-2,5.3857278E-2,7.805392E-2,2.178741E-2,-1.0464122E-1,1.2072979E-2,5.7617705E-2],"split_indices":[7,6,8,18,22,6,3,7,17,21,17,8,14,2,9,1,23,9,24,22,15,7,5,18,3,6,5,8,6,20,6,0,0,0,0,0,0,0,0,0,0,0,0,0,0,0,0,0,0,0,0,0,0,0,0,0,0,0,0,0,0,0,0],"split_type":[0,0,0,0,0,0,0,0,0,0,0,0,0,0,0,0,0,0,0,0,0,0,0,0,0,0,0,0,0,0,0,0,0,0,0,0,0,0,0,0,0,0,0,0,0,0,0,0,0,0,0,0,0,0,0,0,0,0,0,0,0,0,0],"sum_hessian":[1.0664326E6,7.29689E5,3.3674356E5,4.5316062E4,6.8437294E5,3.2098107E4,3.0464544E5,1.9354493E3,4.3380613E4,5.9456406E5,8.9808914E4,2.3624492E3,2.9735658E4,1.6746516E5,1.371803E5,4.2604895E2,1.5094004E3,4.25397E4,8.4091187E2,3.0751634E5,2.870477E5,8.015338E4,9.65553E3,1.9142983E3,4.4815082E2,7.426839E3,2.230882E4,8.509104E4,8.237412E4,4.878512E4,8.839518E4,1.0116683E2,3.248821E2,1.3697205E3,1.3967987E2,2.1440188E3,4.0395684E4,4.0275107E2,4.3816077E2,2.920057E4,2.7831578E5,6.1191625E4,2.2585608E5,4.0764812E4,3.9388574E4,5.54912E3,4.1064106E3,1.6706738E2,1.747231E3,2.7071024E2,1.7744058E2,5.470655E3,1.9561842E3,6.5967285E3,1.5712091E4,8.459558E4,4.9545496E2,1.7581246E4,6.479287E4,4.7194266E4,1.590854E3,1.4722412E4,7.3672766E4],"tree_param":{"num_deleted":"0","num_feature":"25","num_nodes":"63","size_leaf_vector":"1"}},{"base_weights":[3.4645535E-3,-2.2972386E-1,5.2072495E-1,-4.0173513E-1,-7.3515154E-2,-1.6679385E-1,5.963509E-1,-2.3376498E-1,-6.388615E-1,2.9425022E-1,-2.7676797E-1,-1.1729997E0,-9.204794E-2,7.7878547E-1,3.376697E-1,-6.3002855E-1,-1.3748315E-1,1.3066047E-1,-6.9475913E-1,6.530433E-1,7.845132E-2,-5.651539E-1,-8.081333E-2,7.055002E-1,-1.1969432E0,-2.3737025E-1,2.6355952E-1,8.7111413E-1,6.563341E-1,1.9483508E-1,5.2867E-1,-7.574863E-2,9.6597E-3,3.145923E-2,-3.0321328E-2,-4.1298956E-2,3.0015245E-2,-7.8912504E-2,-3.7149884E-2,8.161076E-2,-4.1004583E-2,4.236148E-2,-9.683277E-3,4.1379746E-2,-6.1750066E-2,-5.248764E-2,3.885656E-3,-1.12884216E-1,1.3076057E-1,-1.1124188E-1,-1.53881E-1,1.7241905E-2,-4.7648765E-2,-2.0410968E-2,7.11767E-2,8.793815E-2,-3.8017713E-2,4.7885537E-2,7.276867E-2,3.3982433E-2,-3.317703E-3,6.223727E-2,-4.1621467E-3],"categories":[],"categories_nodes":[],"categories_segments":[],"categories_sizes":[],"default_left":[0,0,0,0,0,0,0,0,0,0,0,0,0,0,0,0,0,0,0,0,0,0,0,0,0,0,0,0,0,0,0,0,0,0,0,0,0,0,0,0,0,0,0,0,0,0,0,0,0,0,0,0,0,0,0,0,0,0,0,0,0,0,0],"id":22,"left_children":[1,3,5,7,9,11,13,15,17,19,21,23,25,27,29,31,33,35,37,39,41,43,45,47,49,51,53,55,57,59,61,-1,-1,-1,-1,-1,-1,-1,-1,-1,-1,-1,-1,-1,-1,-1,-1,-1,-1,-1,-1,-1,-1,-1,-1,-1,-1,-1,-1,-1,-1,-1,-1],"loss_changes":[1.2515145E5,1.9216277E4,1.676346E4,1.355673E4,2.8016244E4,2.4028965E3,1.3707148E4,7.6014453E3,6.0707227E3,1.0329529E4,1.3641156E4,1.0021118E2,1.5370835E3,1.9251641E3,3.277165E3,3.6070566E3,1.2009633E4,8.808592E2,4.0133047E3,8.6860625E3,5.040234E3,5.004957E3,7.638014E3,3.2880375E1,6.133423E1,2.0690476E3,1.808876E3,1.00489844E3,9.269453E2,2.2722314E3,2.7465928E3,0E0,0E0,0E0,0E0,0E0,0E0,0E0,0E0,0E0,0E0,0E0,0E0,0E0,0E0,0E0,0E0,0E0,0E0,0E0,0E0,0E0,0E0,0E0,0E0,0E0,0E0,0E0,0E0,0E0,0E0,0E0,0E0],"parents":[2147483647,0,0,1,1,2,2,3,3,4,4,5,5,6,6,7,7,8,8,9,9,10,10,11,11,12,12,13,13,14,14,15,15,16,16,17,17,18,18,19,19,20,20,21,21,22,22,23,23,24,24,25,25,26,26,27,27,28,28,29,29,30,30],"right_children":[2,4,6,8,10,12,14,16,18,20,22,24,26,28,30,32,34,36,38,40,42,44,46,48,50,52,54,56,58,60,62,-1,-1,-1,-1,-1,-1,-1,-1,-1,-1,-1,-1,-1,-1,-1,-1,-1,-1,-1,-1,-1,-1,-1,-1,-1,-1,-1,-1,-1,-1,-1,-1],"split_conditions":[1.5933347E0,-8.367488E-2,-3.720071E-1,-2.3956485E-1,6.945255E-2,-1.6149491E0,-2.3127437E-1,-1.4618217E0,-3.944094E-1,-2.4445982E-1,3.7570742E-1,-2.3106221E-2,3.7570742E-1,-3.5931444E-1,6.945255E-2,1.2985681E0,-1.1555669E0,-1.1466193E0,3.864371E-1,4.142687E-1,-3.4137708E-1,-5.043481E-1,-5.266205E-1,-8.140736E-1,-4.882659E-1,-1.0024395E0,-4.882659E-1,1.7206515E0,-8.49312E-1,8.391393E-3,5.288348E-1,-7.574863E-2,9.6597E-3,3.145923E-2,-3.0321328E-2,-4.1298956E-2,3.0015245E-2,-7.8912504E-2,-3.7149884E-2,8.161076E-2,-4.1004583E-2,4.236148E-2,-9.683277E-3,4.1379746E-2,-6.1750066E-2,-5.248764E-2,3.885656E-3,-1.12884216E-1,1.3076057E-1,-1.1124188E-1,-1.53881E-1,1.7241905E-2,-4.7648765E-2,-2.0410968E-2,7.11767E-2,8.793815E-2,-3.8017713E-2,4.7885537E-2,7.276867E-2,3.3982433E-2,-3.317703E-3,6.223727E-2,-4.1621467E-3],"split_indices":[7,6,8,18,6,6,3,6,23,15,6,22,6,3,6,7,6,9,16,7,5,23,21,17,8,6,8,8,6,2,6,0,0,0,0,0,0,0,0,0,0,0,0,0,0,0,0,0,0,0,0,0,0,0,0,0,0,0,0,0,0,0,0],"split_type":[0,0,0,0,0,0,0,0,0,0,0,0,0,0,0,0,0,0,0,0,0,0,0,0,0,0,0,0,0,0,0,0,0,0,0,0,0,0,0,0,0,0,0,0,0,0,0,0,0,0,0,0,0,0,0,0,0,0,0,0,0,0,0],"sum_hessian":[1.03757356E6,7.151667E5,3.2240684E5,3.4036628E5,3.748004E5,3.1949691E4,2.9045716E5,1.9923719E5,1.411291E5,1.3340931E5,2.4139111E5,2.2082488E3,2.9741441E4,1.703301E5,1.2012706E5,3.8945418E4,1.6029177E5,9.557216E3,1.3157189E5,5.0103633E4,8.330568E4,9.766131E4,1.4372978E5,2.743388E1,2.180815E3,2.1113531E4,8.62791E3,9.710591E4,7.322418E4,6.873065E4,5.1396418E4,3.3133426E4,5.811991E3,4.2999004E4,1.1729276E5,2.2711157E3,7.2861006E3,1.0184108E5,2.9730805E4,4.344063E4,6.663003E3,2.8056455E4,5.5249227E4,4.9567563E3,9.270456E4,3.0510408E4,1.13219375E5,6.563388E0,2.0870493E1,1.7519183E3,4.2889655E2,7.780285E3,1.3333246E4,4.222553E3,4.405357E3,9.646883E4,6.3708093E2,2.099931E4,5.222487E4,4.2014082E4,2.6716566E4,4.414329E4,7.253128E3],"tree_param":{"num_deleted":"0","num_feature":"25","num_nodes":"63","size_leaf_vector":"1"}},{"base_weights":[-1.958434E-4,-2.1400759E-1,4.8849374E-1,-8.6468136E-1,-1.7482363E-1,-6.04335E-2,5.777485E-1,-2.785866E-1,-8.9778364E-1,-2.1644126E-1,2.2807367E-1,-3.4074357E-1,2.4041732E-1,7.888686E-1,3.513391E-1,1.3582772E0,-1.0065506E0,-1.0751586E-1,-9.192893E-1,-2.595099E-1,2.024593E-1,7.0230407E-1,1.3360268E-1,-9.247115E-2,-7.144631E-1,3.0415806E-1,-7.7389914E-1,7.9896265E-1,-2.694553E-1,4.9784312E-1,1.8196455E-1,4.1479728E-1,-7.786839E-2,-5.311153E-2,-1.09563485E-1,4.084861E-1,-3.2912545E-2,-3.0605276E-3,-9.365905E-2,3.451544E-3,-3.098219E-2,1.2297765E-2,9.245663E-2,9.224764E-2,2.0002967E-2,-6.355963E-3,4.338422E-2,-5.4074198E-2,-1.6948091E-3,-3.3043012E-2,-1.0119394E-1,-6.385577E-3,4.4368885E-2,6.9429665E-3,-1.0945405E-1,9.005543E-2,7.03829E-2,6.9900945E-2,-4.1646164E-2,2.1897165E-2,5.8547873E-2,-3.6556214E-2,2.5831044E-2],"categories":[],"categories_nodes":[],"categories_segments":[],"categories_sizes":[],"default_left":[0,0,0,0,0,0,0,0,0,0,0,0,0,0,0,0,0,0,0,0,0,0,0,0,0,0,0,0,0,0,0,0,0,0,0,0,0,0,0,0,0,0,0,0,0,0,0,0,0,0,0,0,0,0,0,0,0,0,0,0,0,0,0],"id":23,"left_children":[1,3,5,7,9,11,13,15,17,19,21,23,25,27,29,31,33,35,37,39,41,43,45,47,49,51,53,55,57,59,61,-1,-1,-1,-1,-1,-1,-1,-1,-1,-1,-1,-1,-1,-1,-1,-1,-1,-1,-1,-1,-1,-1,-1,-1,-1,-1,-1,-1,-1,-1,-1,-1],"loss_changes":[1.0494398E5,1.78134E4,1.4976992E4,7.6967773E2,1.1049867E4,3.605563E3,1.2567883E4,2.5310874E3,6.38291E2,1.0776207E4,2.7640823E3,2.053509E3,1.3335071E3,1.4537188E3,3.1481934E3,3.9017212E3,6.168042E1,9.2693713E2,5.62209E2,8.0121133E3,3.1959294E3,1.1332227E3,3.0457139E3,4.5024203E2,1.0089033E3,9.9637354E2,3.298529E2,1.3019375E3,1.8340845E2,1.6624629E3,2.459942E3,0E0,0E0,0E0,0E0,0E0,0E0,0E0,0E0,0E0,0E0,0E0,0E0,0E0,0E0,0E0,0E0,0E0,0E0,0E0,0E0,0E0,0E0,0E0,0E0,0E0,0E0,0E0,0E0,0E0,0E0,0E0,0E0],"parents":[2147483647,0,0,1,1,2,2,3,3,4,4,5,5,6,6,7,7,8,8,9,9,10,10,11,11,12,12,13,13,14,14,15,15,16,16,17,17,18,18,19,19,20,20,21,21,22,22,23,23,24,24,25,25,26,26,27,27,28,28,29,29,30,30],"right_children":[2,4,6,8,10,12,14,16,18,20,22,24,26,28,30,32,34,36,38,40,42,44,46,48,50,52,54,56,58,60,62,-1,-1,-1,-1,-1,-1,-1,-1,-1,-1,-1,-1,-1,-1,-1,-1,-1,-1,-1,-1,-1,-1,-1,-1,-1,-1,-1,-1,-1,-1,-1,-1],"split_conditions":[1.5933347E0,-1.6149491E0,-2.557483E-1,-1.1499857E0,2.2635038E0,-8.367488E-2,-2.69719E-1,-3.438804E-1,-4.5249096E-1,3.1071875E-2,-1.2668365E-2,-2.8199425E-1,5.623636E-1,1.7206515E0,-5.874291E-2,-1.921204E0,-5.067751E-1,-1.1486967E0,-4.9210298E-1,-4.1971916E-1,2.8766692E0,-9.5330113E-1,-8.009284E-2,-1.6149491E0,-1.0024395E0,-9.5330113E-1,6.945255E-2,-3.9071605E-1,-1.7059852E-1,-8.49312E-1,-8.49312E-1,4.1479728E-1,-7.786839E-2,-5.311153E-2,-1.09563485E-1,4.084861E-1,-3.2912545E-2,-3.0605276E-3,-9.365905E-2,3.451544E-3,-3.098219E-2,1.2297765E-2,9.245663E-2,9.224764E-2,2.0002967E-2,-6.355963E-3,4.338422E-2,-5.4074198E-2,-1.6948091E-3,-3.3043012E-2,-1.0119394E-1,-6.385577E-3,4.4368885E-2,6.9429665E-3,-1.0945405E-1,9.005543E-2,7.03829E-2,6.9900945E-2,-4.1646164E-2,2.1897165E-2,5.8547873E-2,-3.6556214E-2,2.5831044E-2],"split_indices":[7,6,8,9,21,6,1,18,2,22,22,20,18,8,3,6,24,9,23,18,17,8,14,6,6,8,6,2,15,6,6,0,0,0,0,0,0,0,0,0,0,0,0,0,0,0,0,0,0,0,0,0,0,0,0,0,0,0,0,0,0,0,0],"split_type":[0,0,0,0,0,0,0,0,0,0,0,0,0,0,0,0,0,0,0,0,0,0,0,